-0.06598115	0.036565345	0.078465156	0.04265748	0.032538544	0.045138557	-0.024485353	0.04905063	-0.00809676	0.019946914	0.021629905	-0.014531744	-0.05584273	0.016251644	-0.042018212	-0.020271884	0.010990948	-0.009851171	-0.060900133	0.071056314	0.079024605	-0.04583538	-0.07365441	0.017907457	0.10623523	-0.044003062	-0.045264505	-0.039207324	0.04751386	0.07954212	0.038217638	0.0038918352	0.031191515	-0.011904074	-0.051242083	-0.08934845	-0.028828757	-0.07807006	-0.09114287	0.05479197	0.010070578	-0.06798215	-0.006213237	0.010709349	-0.00037603942	0.04799514	0.023770673	0.0560381	-0.06654474	0.15696785	0.005447082	0.02943205	0.068413936	0.01648862	0.05546086	-0.10741877	-0.0021199898	-0.0016550712	-0.06301304	0.076042354	-0.100336924	-0.012194822	-0.0042866645	0.0155535815	0.02349627	0.018649312	0.033072844	-0.07219975	-0.014775965	0.09786287	-0.010999424	-0.017083624	-0.010724928	0.03095293	-0.07297195	0.04769982	0.01676336	0.066058464	0.04241315	-0.05699128	-0.0777183	-0.008069986	-0.026892979	-0.09978047	0.0412447	-0.011985407	-0.014391823	0.08651056	-0.011542482	0.06699399	0.03872894	0.040248595	0.09673978	-0.04372919	-0.007909276	0.018047815	-0.008946698	-0.036193673	-0.0031354837	-0.059538897	-0.047702037	0.009244832	-0.043423552	-0.03447106	0.008385911	-0.038898345	0.016751546	-0.024972055	-0.019471444	0.065116465	0.03645639	0.019848166	0.11864867	-0.039847206	-0.020816594	0.040547885	-0.067239024	0.026705604	0.11702625	0.00087315065	0.0734138	0.062360525	0.010145467	-0.030312495	-0.04720998	-0.023723368	0.010262396	-5.6354145e-07	0.026001338	-0.065284	-0.03006682	-0.015936125	-0.0729865	-0.04494451	0.028413428	-0.030934593	0.032403506	-0.00014223915	-0.0020459208	0.015934383	0.003405239	-0.055395	-0.06344004	0.04718566	-0.035216253	0.067840494	0.09848931	0.050266262	0.081275575	-0.032500114	0.02376267	0.04604632	-0.017111165	-0.042446513	-0.014166136	-0.013198433	0.0024930297	-0.031243455	0.14131784	0.0153240105	0.050145186	-0.100835115	-0.024717841	-0.038563985	0.009112403	0.07995681	0.04345792	-0.029973144	-0.018331386	-0.08646098	0.0183753	-0.05500963	-0.06415588	-0.048695054	-0.03012485	-0.03807944	-0.12707332	0.04310225	-0.014754614	-0.01673829	-0.005702375	-0.032613415	-0.031202765	0.011630272	0.027258554	-0.024421483	-0.073890366	-0.039052114	-0.030808015	-0.06166749	0.01982146	0.0457673	-0.05889665	0.08280981	0.03309355	0.039860036	-0.06729308	-0.032332998	0.04224682	0.02388163	-0.09917598	-0.08792292	0.019849805	-0.051239848	0.1483518	-0.101376235	0.047159743	0.040223084	0.00013456128	-0.016464371	0.10448363	-0.025671776	-0.022770608	0.09989547	0.042672083	0.14072442	0.040439077	-0.052623264	0.05297109	-0.09832506	-0.04753798	0.010747349	0.09108174	-7.270717e-07	-0.06122436	0.086500004	-0.029941803	-0.00083839166	0.036578607	-0.08384653	-0.06910761	-0.0026430374	-0.005808583	-0.038569625	0.020037951	-0.054599937	0.017902195	0.018649599	-0.04983458	-0.077657364	-0.07732212	-0.08519535	0.055473264	0.008099825	-0.013970984	-0.0013948806	0.055805646	0.03842697	-0.019282022	-0.014605416	-0.027773732	0.030851608	0.01748072	-0.039151132	0.03227306	-0.028398572	-0.009173975	0.019790173	0.03823996	-0.09038838	-0.013603745	-0.029474184	0.0042816736	0.030789226	0.044691235	0.011864166	0.025055034	-0.0190844	-0.00023930792	-0.017189218	0.052814096	-0.07791282	0.08938084	-0.025581438	-0.010684928	-0.06768209	0.08819708	-0.009218101	-0.007590685	-0.044303857	0.0726626	-0.030636517	-0.009091512	0.04248718	0.017895402	0.05390067	-0.053414032	-0.04699704	-0.058455817	-0.029454192	0.0045635896	-0.068960905	0.0794421	-0.038277306	0.051852256	-0.08207631	-0.020250548	-0.020205226	0.027546104	0.009010904	0.027872678	0.004618768	-0.03587596	0.012776125	-0.06015286	0.0318808	0.04097412	0.060008697	-0.041027132	-0.059288807	0.004379633	-0.06870553	0.029653927	0.11681237	0.018822394	-0.028056288	-0.011730727	0.022366395	-0.028168585	-9.964733e-07	0.06733644	0.032857027	0.043123312	-0.027617956	0.08258625	-0.025530089	0.005483885	-0.08984206	0.02697544	-0.015992709	0.07319318	-0.015447071	-0.019766212	-0.05792253	0.010127655	-0.017852787	0.00025420808	0.0046269833	0.022701707	-0.014089622	-0.014931318	-0.053243846	-0.013286469	-0.010778061	-0.010209932	-0.010261079	-0.018206533	0.06970765	-0.061142147	0.067697264	-0.051692426	0.0179025	0.037793703	-0.067468666	-0.054613695	-0.028920064	0.0064775376	-0.014237423	0.050494563	0.008828902	0.057478707	0.087504275	0.053515263	0.023802275	-0.010768918	0.006675989	-0.13909402	-0.07909566	-0.03460784	-0.047235526	0.07803083	-0.046035685	0.07754531	0.024963021	-0.058229078	0.03397227	0.049183585	0.10348969	-0.017431768	-0.09238489	0.046973836	0.0031286976	0.04485021	0.0101085
-0.05615461	0.022582775	0.032746933	0.044797834	-0.0064286096	0.08371818	-0.0076096407	0.056996252	0.028294453	0.010468764	0.0023715384	0.00017308173	-0.00600312	-0.006478953	-0.061327834	-0.017691277	-0.049370192	-0.0087683955	-0.07084184	0.032182943	0.04842543	-0.069360636	-0.06539298	-0.0015281892	0.10401183	-0.06523398	-0.038498897	-0.050068244	0.01579683	0.04716929	0.02006238	0.04021704	0.074961	-0.011432802	-0.09591386	-0.1350796	-0.053550504	-0.04177185	-0.061629925	0.027624536	0.0013779963	-0.07258804	0.01872753	-0.016002806	-0.018277632	0.04417299	-0.014365953	0.04681414	-0.09600615	0.12314241	-0.025773792	0.020942636	0.044272188	0.03811369	0.057093203	-0.08733177	-0.043306056	0.018625576	-0.081856854	0.08586288	-0.13942766	-0.011327776	-0.009745713	0.007562722	0.029192101	0.044949345	0.01105695	-0.096262515	-0.00025484894	0.13472864	-0.0003226594	0.010957219	0.011520883	0.036621757	-0.090570726	0.019147083	0.004674186	0.07945579	-0.014369927	-0.048182454	-0.058531597	0.00096523465	-0.04521517	-0.08159486	0.047753315	-0.050329402	0.009898274	0.05305408	-0.017466314	0.04209571	-0.005378645	0.0284946	0.13328691	-0.022295792	0.013356841	0.047035865	-0.028339563	0.022245103	0.04523695	-0.0019631444	-0.080786355	0.034206618	-0.04097327	-0.025350261	0.012624454	-0.03630658	0.010963201	-0.045146663	-0.025342379	-0.006860236	0.028088724	0.014715697	0.12872967	-0.03610485	0.0015461851	0.011430874	-0.038483985	0.06652743	0.09215054	0.024873251	0.071972005	0.07979438	0.037747987	-0.04267897	-0.08550526	-0.01921257	0.036317173	-1.0106346e-07	-0.0020496505	-0.08854323	-0.06289174	0.008299683	-0.08054512	-0.033006944	-0.0025062342	-0.035879392	0.0589343	-0.015697349	0.0010894366	0.029170325	0.054567605	-0.031033322	-0.039503384	0.0639573	-0.030755136	0.087937824	0.06825122	0.016798157	0.092373125	0.007548494	0.03834387	0.048715875	0.019745339	-0.054919913	-0.013266764	-0.021923475	-0.025593258	-0.040537413	0.13724902	0.0013184721	0.016650544	-0.072005376	0.0034234673	-0.015055559	0.073213995	0.05245001	0.08476843	-0.0134523455	-0.061737232	-0.07044337	0.010193233	-0.06727481	-0.117275566	-0.02709414	-0.035030313	-0.029826485	-0.12829491	0.08598539	0.011304579	-0.0030245418	0.039109353	-0.027626345	-0.036314312	0.028828884	0.0314115	-0.03299785	-0.0671808	0.022403512	-0.0046191267	-0.05316557	0.030297896	-0.0029629776	-0.07688965	0.10591351	0.029587291	0.03576026	-0.04867537	-0.019563809	0.033624016	-0.001988967	-0.12637864	-0.09236832	0.012684115	-0.02966385	0.16445254	-0.066113316	0.03689584	0.064489044	0.0032853081	0.008375024	0.13636631	-0.056443565	-0.05497735	0.06927613	0.032485574	0.09233795	0.029017631	-0.039795663	0.07931941	-0.0769338	-0.028984485	0.04590679	0.09961973	-3.189532e-07	-0.075216465	0.09801519	-0.055911753	0.00693862	0.0695283	-0.07153003	-0.03469367	0.033045672	-0.034945536	-0.038690757	0.04497963	-0.03981079	0.01677768	0.02184835	-0.04902099	-0.048793457	-0.053208552	-0.048779335	0.05890854	0.015063614	0.030568972	0.0028032877	0.007719621	0.016888002	-0.013229192	0.0099697225	0.027518323	-0.022286072	-0.0030496204	-0.017712915	0.06469436	-0.030304652	0.009251512	-0.018206893	0.050850954	-0.10439329	-0.0009266244	-0.012234016	0.034532927	0.047194388	0.015029221	0.003644889	0.006144895	-0.022253066	-0.022417981	0.0054590497	0.027273346	-0.037613556	0.07441915	-0.039618332	-0.03357142	-0.016454725	0.059856094	0.02061249	-0.019916816	-0.0511711	0.07495102	-0.04547991	0.014061039	0.06625018	0.022607075	0.04461877	-0.028133387	-0.037713524	-0.034087826	0.00700002	0.013989454	-0.08273839	0.02032464	-0.004896223	0.046079062	-0.0554807	-0.04557878	-0.008959926	0.0062515493	0.014671459	-0.03295234	-0.020016551	-0.032426152	0.005817949	-0.073655434	0.026827969	0.10334123	0.01554282	-0.09416688	-0.037995547	0.05498117	-0.036841795	0.017007314	0.038349014	0.04995351	-0.07691486	-0.003593433	-0.005622699	-0.023811473	-4.6842575e-07	0.068214044	0.003784281	0.026870525	-0.022137186	0.084654585	0.0033344058	-0.038231757	-0.044040084	0.024978224	-0.038696367	0.065210514	-0.030230355	-0.03143385	-0.059535604	0.06099105	-0.03253639	-0.007898551	-0.0001182418	0.017788822	-0.026575444	0.041717026	-0.018493202	-0.023920743	-0.013218924	-0.0099348305	0.034917485	0.010133766	0.0864492	-0.06578201	0.041412696	-0.039562102	-0.001984317	0.007884759	-0.06876015	-0.0056752097	0.0093647335	0.012710775	-0.031673	0.022124697	-0.00014222942	0.044555876	0.018823724	0.043847427	0.04460129	0.008685347	-0.00532948	-0.1425068	-0.07285563	-0.050424922	-0.06251108	0.06835411	-0.054817673	0.06643044	0.012734079	-0.0078922035	0.029607292	0.055304687	0.079123825	-0.023475043	-0.07840932	0.073834166	0.003470373	0.019541694	0.003178284
-0.11779727	0.07579881	0.06737553	0.011290297	0.005612875	0.0619326	-0.0076279338	0.019577859	0.022072244	0.019288728	0.006244096	-0.003368148	-0.037734233	0.001462246	-0.05451805	-0.03217438	0.0062121092	-0.017065648	-0.09756444	0.048579656	0.013677182	-0.012701473	-0.08259946	0.015874427	0.06736243	-0.05970448	-0.015229541	-0.038214933	0.040325083	0.048377585	0.058343846	0.02287312	0.0018606957	-0.017674357	0.011089066	-0.10630521	-0.037970964	-0.05628708	-0.08076407	0.051883698	0.0013558764	-0.08124651	-0.0105877565	0.014734337	0.0075257216	0.07371479	0.031266462	0.047859773	-0.04333172	0.12174866	-0.0056312084	-0.017741213	0.06908166	0.02015876	0.013379082	-0.09207565	0.02535556	0.028111188	-0.075078316	0.08279066	-0.07372302	-0.048567433	-0.010459934	0.013737499	0.0008894121	0.0071615116	0.034611095	-0.096936904	0.02704294	0.0719186	0.0071954154	-0.007895096	0.01768365	0.06153185	-0.08525795	0.042079918	-0.0006283047	0.033228274	0.012924564	-0.036588307	-0.079674274	-0.0029724478	-0.027872166	-0.089731105	0.071421124	-0.015720418	-0.0029787305	0.089683525	-0.047040313	0.053770933	0.050595257	0.038413197	0.11174752	-0.05180254	-0.018784048	-0.0024917165	0.029873895	0.014196203	0.0351789	0.10229219	-0.052253455	0.017027317	-0.038791057	-0.018308192	0.025735745	-0.021219794	-0.009000839	-0.026984744	-0.01224685	0.04264321	-0.030581502	0.0035204068	0.119822785	-0.013499976	-0.026610482	0.0496737	-0.063717045	0.06505395	0.07613209	-0.07023438	0.055869814	0.061720915	0.004646796	-0.058456775	-0.0672185	-0.09736369	0.061767496	5.080108e-07	0.008721504	-0.04132372	-0.05363319	-0.030248428	-0.040952023	-0.025363598	0.044211548	-0.057566606	-0.0077069104	0.027468886	-0.02779942	0.04723429	0.01864081	-0.051808413	-0.06643407	0.07733744	-0.029024607	0.044399932	0.12464983	0.028922418	0.077107236	-0.05337036	0.023566138	0.02697618	-0.043769144	-0.010527731	0.0368246	-0.02890809	0.014222702	-0.036797605	0.094409004	0.01258068	0.05537145	-0.075004846	0.027724525	-0.005565083	0.04024413	0.041366708	0.057903018	-0.051370732	0.019916177	-0.058121365	0.013163586	-0.044612393	-0.0696995	-0.029821035	0.00023051203	-0.019783486	-0.08190053	0.06452019	-0.006984337	0.012205041	-0.0043802797	-0.0027708353	-0.059655234	-0.002028259	0.046831336	-0.025750218	-0.050816983	-0.05991513	0.013487343	-0.021547565	0.01871302	0.009705875	-0.081622355	0.043786954	0.026321111	0.006218354	-0.031336065	-0.069193065	0.035058495	0.034845427	-0.09737274	-0.092758276	0.001974499	-0.05059058	0.13472578	-0.074772656	0.03816368	0.045309294	0.026861764	-0.03066407	0.095419884	-0.014294004	-0.056518618	0.100074664	0.05102988	0.11451117	0.013616751	0.008233934	0.03814723	-0.10511639	-0.026934402	0.04691213	0.12908043	4.3222656e-07	-0.045498528	0.060343254	-0.06758009	0.032527197	0.030279443	-0.064295	-0.068165705	0.048659932	-0.056797225	-0.016885847	0.050150014	-0.051977154	0.02628414	0.008795242	-0.0068219537	-0.06933178	-0.04771252	-0.05653416	0.07185204	0.016631639	0.018732533	0.03413248	0.0052018403	0.03396719	-0.041689128	0.011463769	0.019205881	-0.01672931	0.005047563	0.007116818	0.03620486	-0.04610281	-0.014157034	0.06771501	0.048521917	-0.120541066	0.044386096	-0.047592122	0.03607113	0.06558457	0.010648293	0.03269104	0.0241424	-0.01928151	-0.04020103	-0.045218315	0.06186763	-0.04045543	0.094926775	-0.01222552	-0.050017435	-0.049304027	0.12088041	-0.016712673	-0.05154913	-0.01304977	0.049491856	0.003544676	0.023611628	0.026628304	0.02664227	0.072494686	-0.06402318	-0.056220192	-0.011084937	-0.009971973	-0.0009515519	-0.052534215	0.077394396	0.0048228204	0.058278896	-0.06791631	-0.025486572	-0.009560257	0.045417715	0.0015858993	-0.012306829	0.0058501987	-0.05900958	-0.0031125722	-0.023275066	0.05008777	0.045724917	0.058406092	-0.005122795	-0.09354633	0.034920048	-0.012937038	0.005796946	0.07426658	0.07368336	-0.061930455	0.010154018	0.020249113	-0.053231753	1.1768693e-07	0.06981876	0.023217805	0.049788132	0.010728412	0.075728394	-0.041599337	-0.0006349658	-0.10976304	0.006357365	-0.025971036	0.06097084	-0.030909318	-0.048883073	-0.08611556	0.014647174	-0.034959383	-0.018999869	-0.025092684	0.031165475	-0.0025811032	0.0012607413	-0.050910313	-0.0041324263	0.012619327	-0.06293846	0.0022495158	0.007518417	0.06731225	-0.03931868	0.07422637	-0.060434833	0.052955307	0.09480423	-0.07213973	-0.041246917	-0.044984456	-0.00540788	-0.023420656	0.020398919	-0.021372236	0.048057254	0.08170693	0.013527684	0.0021915694	-0.0014555916	0.023179578	-0.12969148	-0.10832435	-0.07254481	0.009437067	0.064454384	-0.035365634	0.072581954	0.06135526	-0.084137544	-0.0123988725	0.057754584	0.104368165	0.008318036	-0.04862563	0.06331248	0.04514512	0.07098326	0.0005855264
-0.03302773	0.037617456	0.056457408	0.065376535	0.03001377	0.010293554	0.017513214	0.06695188	0.0031864927	0.04417615	0.010436349	-0.019565774	-0.04048395	0.005643842	-0.072122775	-0.024926579	-0.031078441	-0.0038334124	-0.08350772	0.036762513	0.019016493	-0.028814696	-0.045365427	-0.007345501	0.12444842	-0.048094958	-0.055074114	-0.05525242	0.017405353	0.03725836	-0.021706203	0.01934966	0.033305865	-0.007444103	-0.078685045	-0.1304701	0.005346103	-0.06748344	-0.09206147	0.04002046	0.03669193	-0.04922755	0.0066911816	-0.01876514	4.3315296e-05	0.04511415	-0.01379429	0.035691954	-0.05840781	0.1581167	-0.011936646	0.014028395	0.07397107	0.055899918	0.029236637	-0.092941485	-0.0045543504	0.018962743	-0.061805617	0.0539241	-0.103228845	0.018374015	-0.0070327134	0.014700102	0.007819313	0.02283558	0.0450739	-0.05631526	0.009645679	0.07570083	0.02424868	-0.0025040088	0.014058468	0.0123103075	-0.059254747	0.010773142	0.032350335	0.06730347	0.032425113	-0.035479788	-0.04822015	-0.0022998375	-0.070710756	-0.067234226	0.07152772	-0.04823565	0.03151185	0.0777227	-0.019709827	0.029673973	0.01870383	0.054534517	0.08103231	-0.027564066	-0.008369813	0.040621895	0.0029862262	0.0068117063	0.016194604	0.0662135	-0.06280246	0.015617727	-0.07087126	-0.07339816	0.013478476	-0.027272733	0.014354062	-0.00084312656	-0.050659794	0.038280983	0.021017635	-0.0076554106	0.10438991	-0.04117673	0.021218956	0.038361754	-0.038928114	0.057263795	0.059171084	0.044891052	0.085025154	0.08422264	-0.0056373193	0.027460024	-0.064066224	-0.0034883772	0.022516495	3.4373383e-07	0.057678487	-0.10089083	-0.05580671	-0.038146578	-0.06968429	-0.02290056	0.024900485	-0.047130156	0.052460287	-0.009240419	-0.063971594	0.07647026	-0.006113507	-0.06304791	-0.015210376	0.05701676	-0.04788042	0.043262262	0.051363945	0.023445997	0.02589745	-0.0075144973	0.025918344	0.055317916	-0.0005431011	-0.036086034	0.007967288	-0.04003514	-0.046141066	-0.051497012	0.14958838	0.036552496	0.02164553	-0.050720535	0.022236736	-0.03363965	0.03798061	0.09923186	0.06139973	0.009211224	-0.039724965	-0.10823742	0.016899733	-0.0942337	-0.12902197	-0.048690744	-0.07027055	-0.0516982	-0.14464779	0.06554533	0.007689609	-0.026232399	0.025200322	-0.009597647	-0.046071243	0.050384827	0.028968219	-0.009916471	-0.0590419	0.010762012	-0.0077342163	-0.028153641	0.032831896	-0.009016402	-0.08600386	0.109764345	0.041812822	0.04943124	-0.070748195	-0.008098286	0.033744	0.03523639	-0.062979475	-0.0568153	0.013247817	-0.026735362	0.14900534	-0.1044956	0.034199707	0.083164245	0.014532163	-0.018435558	0.111172676	-0.08518551	-0.053812675	0.07097301	0.029679464	0.114767045	0.04827532	-0.03895865	0.018679295	-0.090140976	-0.043219108	0.027582418	0.052137427	2.6071717e-07	-0.0877963	0.111125335	-0.058587506	0.0065452717	0.06390978	-0.08498593	-0.07280521	0.04235015	-0.035280645	0.00095942337	0.046054985	-0.030212611	-0.012344176	0.047267385	-0.009398867	-0.044827446	-0.030215222	-0.06407023	0.025583109	-0.044496387	0.011480408	0.0145186735	0.022997633	-0.017724486	-0.040271327	0.0023795802	0.0038168984	0.004652214	0.016327638	-0.022386894	0.07724262	-0.031307988	0.020016095	0.020789526	0.033005755	-0.08849294	0.021116657	-0.01704125	0.029777743	-0.0054195942	-0.013751759	0.011540251	-0.01507264	-0.029591644	-0.0014672392	0.01481545	0.036122233	0.006768442	0.094776034	-0.0392786	-0.006162036	-0.030588875	0.08529528	0.03850312	-0.02905967	-0.045799926	0.06950842	-0.047835287	-0.04557352	0.043206748	0.025817787	0.062338736	-0.06735446	-0.04727045	-0.0010730204	0.038054597	-0.015341801	-0.103303455	0.044938568	-0.0206071	0.05873981	-0.00551124	-0.025294762	-0.015410824	0.01159875	0.04278979	-0.033962425	0.037018843	-0.049600314	0.039377436	-0.027977536	-0.020136794	0.06584889	0.0117887035	-0.09293962	-0.013471019	0.020182015	-0.06768297	0.011196936	0.058670003	0.045745984	-0.07055195	-0.009583623	0.035457317	0.007699715	2.057048e-07	0.10212178	0.024162708	0.04593627	0.0034433769	0.06849487	0.020479476	-0.01795578	-0.029126097	0.035433736	-0.035726145	0.07729089	-0.030572496	-0.02951424	-0.039682355	0.045152564	-0.017565615	-0.022999171	-0.00812966	0.04858507	-0.025159694	0.03517683	-0.017127365	-0.035351202	-0.008760074	-0.021116378	0.016821265	0.034083765	0.09209621	-0.09261251	0.050601006	-0.053933185	-0.0064749406	0.05947058	-0.10802144	-0.016946651	-0.017306639	-0.009314365	-0.049946584	-0.0052410495	0.011485126	0.061961118	0.07550804	0.09532464	0.015334942	0.015006021	-0.007840742	-0.09617896	-0.03800045	-0.010445038	-0.052969642	0.096241236	-0.044185344	0.06995845	0.017744029	-0.069480024	0.02591428	0.07245151	0.08718703	-0.055093355	-0.07667933	0.044965893	-0.013096093	0.042132787	0.036829572
-0.10357626	0.053398617	0.04097991	0.05107779	-0.007722671	0.042344715	-0.00143032	0.05695636	0.01944567	0.048838727	-0.02427958	-0.037350316	-0.069505855	-0.0068709487	-0.07580967	0.0063076406	-0.05783899	-0.002559442	-0.054947343	0.017581133	-0.0014012717	-0.020529587	-0.048323505	0.015214446	0.07797529	-0.021505393	-0.028078083	-0.05166472	0.0039439355	0.03200236	-0.0046213306	0.022019615	0.029481279	0.012175224	-0.07247062	-0.114991054	-0.008662765	-0.043708522	-0.058004707	0.039052587	-0.017735358	-0.075383924	0.00053117954	-0.007198778	-0.015102372	0.016456148	0.015776025	0.021939373	-0.07753742	0.17237867	-0.030392624	-0.025053807	0.06009541	0.0108490065	0.051925402	-0.042890854	-0.01420332	-0.0007256978	-0.058024824	0.03799916	-0.13151623	0.01727524	-0.019750064	0.027647901	-0.0005821207	-0.008574865	0.06647299	-0.050994553	5.7632442e-05	0.09970737	-0.028161919	-0.0036118638	0.017854113	-0.03082176	-0.12948246	0.029959697	0.029510222	0.09888044	0.023238927	0.004995385	-0.063406646	0.005916098	-0.07848589	-0.05816031	0.06891006	-0.005875189	0.02496386	0.058243588	-0.09622773	0.047134966	0.030981803	0.062010616	0.102233246	0.0062571643	-0.030563504	0.008265219	0.00012091169	0.020091403	0.02606459	0.00484988	-0.04240161	0.052826546	-0.053508665	-0.055095028	-0.0016157482	-0.020590795	0.030558718	-0.020741966	-0.010524007	0.006010029	0.007414095	-0.0027692881	0.06740913	-0.04922327	-0.017196178	0.0026745768	-0.033993535	0.0762356	0.08945172	0.022594973	0.07793738	0.070356935	0.0034226852	0.018509587	-0.0399512	-0.03406737	0.06464825	2.1371736e-08	0.04422201	-0.044198737	-0.02591074	-0.043698393	-0.07043379	-0.041607108	0.04986672	-0.060254335	0.019276237	-0.021955127	-0.031502776	0.055565808	-0.0031395345	-0.0582305	-0.08259113	0.03192329	-0.064861186	0.044209592	0.09634571	0.01007733	0.10665538	-0.016847385	0.051927656	0.039435145	0.050739158	-0.037714075	0.00046223743	-0.06325633	-0.035080377	-0.03255511	0.11286007	0.005713984	0.0073510986	-0.09691511	-0.008614435	-0.009788392	0.03062362	0.062466655	0.0645057	-0.034365166	0.018287927	-0.0670412	-0.0035816971	-0.0662031	-0.08021692	-0.04348289	-0.018341945	-0.005212276	-0.055710167	0.025004998	0.016293695	-0.04756383	0.02706747	-0.012248796	-0.02150131	0.012390232	0.059728492	-0.036442135	-0.08038111	-0.043382294	0.018403005	-0.045374677	0.03317266	-0.008744955	-0.13032888	0.08900953	0.07624062	0.04145712	-0.07459515	0.007729493	0.010592156	0.019232672	-0.08490411	-0.055032678	-0.004192507	-0.009356937	0.10607704	-0.089720905	0.04188242	0.08644551	0.045257136	-0.010318809	0.12914552	-0.045420356	-0.008792229	0.09765156	0.052970704	0.120377496	0.036822043	-0.044953898	0.05660053	-0.09961511	-0.004019261	0.058464184	0.0535955	-1.2113209e-08	-0.054345194	0.13204892	-0.05841076	0.01357957	0.053510424	-0.047766466	-0.043332092	0.09157935	-0.023288773	-0.0106923245	0.08281649	0.0032449118	0.018553648	0.038344696	-0.039789066	-0.042943772	-0.02778401	-0.10602009	0.055313323	-0.023515457	-0.011714827	0.06552306	0.016966902	0.014579077	-0.029910106	-0.01629012	0.055684913	0.0035454945	0.036223873	-0.02616321	0.07174882	-0.05813633	0.0032712785	-0.0008614529	0.0944046	-0.0935416	0.049601402	-0.037146285	0.018469833	0.04997848	0.006626201	0.006019279	-0.021235628	-0.04052299	0.0029113102	0.015426041	0.055237006	-0.00288747	0.048822217	-0.021648565	-0.032865975	-0.04882204	0.06539226	0.0045211394	-0.008312136	-0.033014525	0.06525289	-0.03374913	0.0047448706	0.013927013	-0.034096915	0.051853452	-0.043376476	-0.07906614	-0.023392167	0.00035980844	0.0142948255	-0.09862184	0.06320329	-0.03933454	0.08515798	-0.037436713	-0.019258017	0.004058958	0.018085454	0.035146464	-0.006236658	-0.024868052	-0.025522659	0.0194896	-0.025760638	0.04828477	0.064427584	-0.0040613334	-0.057835877	-0.047329433	0.026019111	-0.054346804	0.007136464	0.05430257	0.003575368	-0.102503285	0.013988971	0.027002105	0.013882477	3.1201296e-08	0.11149599	0.007410454	0.030069752	-0.009976701	0.081247486	-0.027117398	-0.0106202485	-0.04395934	0.012048105	-0.06877537	0.061942343	-0.039284837	-0.0625928	-0.03864424	0.042642526	0.03541508	-0.010492487	0.004355266	0.05222532	-0.07502356	0.013726102	-0.034750964	-0.019099666	-0.008848833	-0.012272518	0.02109723	-0.017870016	0.071632214	-0.07826255	0.034445915	-0.035753585	0.011658739	0.04520268	-0.06639973	-0.0620666	0.017747251	-0.0044896174	-0.026953354	0.042091083	0.033081688	0.031740762	0.099058785	0.044465177	0.020016516	-0.043679412	0.010933982	-0.09178815	-0.0929687	-0.057475194	-0.05526818	0.121394746	-0.0528156	0.11130423	0.022779783	-0.044860225	0.038602736	0.066851094	0.088798404	-0.018181648	-0.081574485	0.053966098	-0.0031538291	0.040394668	0.029382728
-0.082189955	0.052929115	0.039851602	0.06848044	-0.0032255119	0.039632242	-0.0052531166	0.06719086	0.0062484667	0.046571508	-0.032987237	-0.010801305	-0.06047067	-0.0054652835	-0.050884582	0.0020562855	-0.057514418	-0.029266872	-0.048327804	0.035737827	0.0010919073	-0.047255214	-0.044595473	0.010352106	0.08881439	-0.040355146	-0.040713657	-0.075326376	-0.0019516116	0.052054767	-0.011877272	0.034269296	0.03869546	0.01937163	-0.09074118	-0.10198784	-0.00060927606	-0.035901967	-0.08347526	0.04981262	-0.0059806635	-0.05552005	0.00024081874	-0.00933612	-0.007812771	0.0008378171	0.010602239	0.01999222	-0.0720364	0.15442075	-0.034757026	0.0070378245	0.05436768	-0.006850714	0.043797344	-0.046021536	-0.03240968	0.018890575	-0.051862475	0.044907726	-0.13375466	0.0011030053	-0.00955999	0.0015608097	-0.015406655	0.0058418927	0.057941064	-0.040963553	-0.006935305	0.11582666	-0.03539659	0.015365561	0.017547317	-0.011616306	-0.107675955	0.024405396	0.031152654	0.06533998	0.030873382	-0.0012032479	-0.047104366	-0.0007742334	-0.06837755	-0.056516677	0.083240524	-0.016688926	0.029395336	0.05306151	-0.07520911	0.045383457	0.02067337	0.069537096	0.09924343	0.0020076474	-0.016817976	0.021019898	-0.0032218262	0.032578293	0.011133356	0.0822373	-0.0247155	0.072984114	-0.059406828	-0.054003593	-0.009377392	-0.023862392	0.025002591	-0.024587786	-0.019957103	0.0021603715	0.007713697	0.0063420786	0.084834866	-0.047970835	-0.013953127	0.011797333	-0.03013118	0.05144944	0.09006138	0.035765544	0.07591696	0.0739891	0.022852665	0.0066748257	-0.04991004	-0.0245567	0.067681395	4.418371e-07	0.025531156	-0.057796676	-0.042893004	-0.031133411	-0.08205346	-0.017006878	0.051859424	-0.059707556	0.04349088	-0.01893923	-0.03884339	0.021821588	-0.008827052	-0.047635578	-0.048157718	0.029158076	-0.06843762	0.02987095	0.10288844	-0.012171534	0.072017536	-0.032589693	0.05178585	0.033441648	0.026364315	-0.0388824	0.0049022953	-0.06894268	-0.011264778	-0.03888344	0.1135296	0.016659765	-0.0010806445	-0.08725749	-0.013546626	-0.041936968	0.047842737	0.06276688	0.06305856	-0.028112354	-0.00738233	-0.06816179	-0.018712308	-0.08819867	-0.0801257	-0.02119705	-0.033160944	-0.02921406	-0.08573689	0.022918718	0.00425643	-0.01870124	0.05772456	-0.026831368	-0.041307878	0.029675221	0.05379876	-0.0416327	-0.08218067	-0.024954218	0.011760462	-0.032826517	0.04573669	-0.017479746	-0.13389356	0.10735974	0.06554565	0.047017727	-0.0936598	0.02145425	0.025356147	0.0503005	-0.11252815	-0.093251385	0.0046412447	-0.019207897	0.14076804	-0.08704051	0.050020795	0.066585705	0.053705554	0.0025747162	0.13695462	-0.058871586	-0.03908534	0.089345105	0.035698675	0.11767356	0.062266514	-0.049443334	0.061131597	-0.088949725	-0.005584933	0.057432856	0.06209251	3.3908339e-07	-0.050835624	0.13590826	-0.040216904	0.03456541	0.06285804	-0.06315891	-0.047379363	0.096271254	-0.024312604	-0.004350454	0.08626739	0.0039010604	0.0060390243	0.04115562	-0.0367577	-0.06568682	-0.027154706	-0.08640864	0.055422198	-0.02561519	0.0066694533	0.042902224	0.010584734	0.009339993	-0.035851568	-0.018666552	0.058178682	0.0011819445	0.040620558	-0.034332078	0.07535635	-0.028983993	0.035641246	-0.03410625	0.08568682	-0.07908193	0.02684672	-0.033459194	0.016776467	0.030844843	-0.011536757	0.006339755	-0.03946021	-0.06321667	-0.00067603955	0.023616208	0.055472124	-0.004132929	0.051330592	0.015446173	-0.030136699	-0.043242883	0.063382484	0.0012945677	-0.013050078	-0.039255843	0.054100756	-0.045847468	-0.013855606	0.022941152	-0.040160466	0.03471322	-0.05242051	-0.09594703	-0.021992883	0.014356303	0.026513781	-0.0774328	0.032015078	-0.028790943	0.06288203	-0.0307528	-0.026660116	0.010801692	0.0053979927	0.030833103	-0.038374737	-0.012196757	-0.01901472	0.020547261	-0.026449725	0.029537989	0.06712189	-0.0021609252	-0.05321217	-0.025745999	0.0095468415	-0.03025949	-0.012982736	0.040254474	0.024355028	-0.1058136	0.0198105	0.05861694	0.027279507	1.559524e-07	0.11269949	0.009745257	0.026646467	-0.010222327	0.08947062	0.00094049604	-0.026529081	-0.043676265	0.023649057	-0.061762642	0.06392072	-0.036978737	-0.058097154	-0.028881272	0.05833281	0.016668875	-0.023510017	0.001107911	0.052324954	-0.07882775	0.031550203	-0.042775095	-0.022684358	-0.017078135	-0.0031480647	0.04333597	-0.01801076	0.07163143	-0.08113758	0.028842237	-0.037243437	0.010084142	0.02933297	-0.07688951	-0.04205605	0.02286035	-0.0014108174	-0.041821055	0.041554786	0.012388042	0.03485904	0.09040329	0.05111455	0.007075668	-0.035629444	0.02142729	-0.10211533	-0.05318554	-0.041496135	-0.033799462	0.12414061	-0.040629923	0.09287053	0.026263686	-0.014578658	0.030477392	0.066623755	0.09571349	-0.034699783	-0.075079076	0.051303048	-0.0028243088	0.023757447	0.023409093
-0.07672709	0.042516056	0.08685822	0.028688138	-0.01678762	0.0686899	-0.044749282	0.052969057	-0.0132120475	0.026309554	-0.0151484	0.023577752	-0.05806393	-0.027912533	-0.05597077	-0.03313788	0.009017881	0.018835494	-0.063334204	0.024871383	0.013478072	-0.03305678	-0.102388166	0.014239319	0.1028207	-0.04409208	-0.016243236	-0.007960101	0.020433607	0.01986147	0.046304487	0.022423115	0.056279954	-0.019961806	-0.0015827325	-0.06840966	-0.07511988	-0.06377617	-0.07596504	0.037725627	-0.041076317	-0.05888213	-0.07603088	0.0038026934	0.0032075464	0.010535389	0.05226306	0.051847417	-0.055162348	0.14289276	-0.012391797	-0.03104531	0.052840095	-0.038824238	-0.044807743	-0.028301045	0.03561883	-0.030283744	-0.07175847	0.055900477	-0.1016817	-0.030150611	0.01523096	0.036129855	0.07419178	0.01962982	0.028499812	-0.058536667	-0.027605437	0.030097386	-0.014625727	-0.033148337	0.005221115	0.03549973	-0.023609027	0.07845869	0.012625224	0.095173515	0.03586193	-0.035060156	-0.040232103	0.0155365495	-0.072153404	-0.060142864	0.04192746	-0.03515232	0.016412497	0.10925699	0.011965871	0.010019179	0.084479935	-0.0061120684	0.11111135	-0.024134155	-0.01632458	0.04886632	-0.023655875	-0.025822874	0.057121925	0.004997262	-0.02237405	0.009976987	-0.041923515	-0.058657583	-0.014861363	-0.065834634	0.014208426	-0.03459345	-0.010312656	0.0039828205	0.0193786	0.0029014484	0.08211822	-0.064018145	0.0016990476	0.07932363	-0.08512343	0.035993867	0.1290624	-0.0057967682	0.04522536	0.08754883	0.03018185	-0.08111299	-0.052857067	-0.012416902	-0.018623907	3.3066266e-07	-0.03381186	0.010039294	-0.018506676	-0.043446057	-0.059025634	-0.04399005	0.07035947	0.004601383	-0.013921658	0.008651348	-0.026578268	0.07398141	0.0080256965	-0.024217477	-0.073380925	0.040534165	-0.005648833	0.09225563	0.0859765	0.0809823	0.09411294	-0.049124047	0.028236102	0.03006214	0.056819893	-0.04062279	0.024813319	-0.015511254	0.0042245393	-0.043080114	0.10130666	-0.030942336	0.06419643	-0.058834262	-0.0019181956	0.0019025969	0.011066985	0.06251565	0.059114043	-0.05266128	-0.044033427	-0.059640355	0.002099131	-0.06118845	-0.058730748	-0.0077919494	-0.013886488	-0.00046216502	-0.07189736	0.056003552	0.0076824944	-0.02639428	-0.0015927308	-0.0065917172	-0.04017422	-0.0074063516	0.07856038	-0.09207845	-0.055088986	-0.045216646	0.003444152	-0.11497736	-0.007197772	0.02201662	-0.07288979	0.07188467	0.03395922	0.0055218013	0.019904215	-0.049765967	-0.011874649	-0.0041977167	-0.06421774	-0.07812388	0.030824421	-0.040074863	0.101908445	-0.02865159	0.033002183	0.04153933	0.04656074	0.03094278	0.074841484	-0.030802704	0.027274543	0.06066055	0.048691206	0.13430434	0.006277544	-0.015349042	0.012658947	-0.03580131	-0.048375618	0.102604195	0.16299415	1.7753258e-07	-0.03345106	0.051014718	-0.036646754	-0.0064574415	0.03530593	-0.045474164	-0.084450275	-0.025933798	0.014377264	-0.013775624	-0.017553138	-0.0629128	-0.02002499	-0.043628123	-0.08064325	-0.06584742	-0.05462084	-0.08062401	0.105111524	0.008106652	0.030255249	0.071656816	0.00034305872	0.026899401	0.021757705	0.020122416	0.001229977	0.024598049	0.03583771	-0.0025483829	-0.035694648	-0.07770271	-0.04050038	0.04661565	0.04407106	-0.096587814	-0.0021792678	-0.045664173	0.035552945	0.12367373	0.057620864	0.005128288	-0.010957251	-0.03000596	-0.0007330682	-0.016366797	0.039055184	-0.110612415	0.07703121	-0.03012543	-0.039493296	-0.038374078	0.09018621	-0.013147374	-0.04299651	-0.0042010844	0.07300435	-0.06286187	0.026917556	0.096305475	0.017999033	0.06293415	0.019356458	-0.06033406	-0.035370253	-0.014287272	0.07092352	-0.086501546	0.057055473	-0.015771918	-0.0023130765	-0.053656183	-0.008231951	-0.016578436	0.036014967	0.013192859	0.042363923	0.009470214	-0.052997246	-0.0053774007	-0.033752844	0.058550872	0.030646292	0.052335218	-0.0062957406	-0.027540458	-0.00012683395	-0.04028205	0.047963485	0.07241074	0.013925404	-0.04723598	0.024805415	-0.0006814042	-0.06084003	-2.1102538e-07	0.03679849	-0.0033773198	0.073154144	0.03364291	0.067438185	-0.10406985	-0.08968288	-0.021635111	0.025781058	-0.042107414	0.044205897	-0.024325067	-0.047750365	-0.037329465	0.0073539843	0.00052069745	-0.015518413	0.019681724	-0.008875217	-0.009121705	-0.024769751	-0.011700894	-0.016554328	-0.025131093	-0.00014257232	0.002972484	0.010302208	0.076702856	-0.020221654	0.07743216	-0.065940246	0.04306271	0.07651902	-0.07118681	-0.052068472	-0.0730668	-0.0136123	0.008894073	0.019974407	0.0036511426	0.051512	0.09911151	0.01631276	0.009744926	0.02844749	-0.03855804	-0.17368472	-0.10144637	-0.027837494	-0.04637611	0.08219471	-0.038992807	0.076864384	0.05322008	-0.034455158	0.022188846	0.08216245	0.06724354	0.00027036946	-0.0550804	-0.00091385195	-0.041226674	-0.0036264171	0.028271046
-0.07672709	0.042516056	0.08685822	0.028688138	-0.01678762	0.0686899	-0.044749282	0.052969057	-0.0132120475	0.026309554	-0.0151484	0.023577752	-0.05806393	-0.027912533	-0.05597077	-0.03313788	0.009017881	0.018835494	-0.063334204	0.024871383	0.013478072	-0.03305678	-0.102388166	0.014239319	0.1028207	-0.04409208	-0.016243236	-0.007960101	0.020433607	0.01986147	0.046304487	0.022423115	0.056279954	-0.019961806	-0.0015827325	-0.06840966	-0.07511988	-0.06377617	-0.07596504	0.037725627	-0.041076317	-0.05888213	-0.07603088	0.0038026934	0.0032075464	0.010535389	0.05226306	0.051847417	-0.055162348	0.14289276	-0.012391797	-0.03104531	0.052840095	-0.038824238	-0.044807743	-0.028301045	0.03561883	-0.030283744	-0.07175847	0.055900477	-0.1016817	-0.030150611	0.01523096	0.036129855	0.07419178	0.01962982	0.028499812	-0.058536667	-0.027605437	0.030097386	-0.014625727	-0.033148337	0.005221115	0.03549973	-0.023609027	0.07845869	0.012625224	0.095173515	0.03586193	-0.035060156	-0.040232103	0.0155365495	-0.072153404	-0.060142864	0.04192746	-0.03515232	0.016412497	0.10925699	0.011965871	0.010019179	0.084479935	-0.0061120684	0.11111135	-0.024134155	-0.01632458	0.04886632	-0.023655875	-0.025822874	0.057121925	0.004997262	-0.02237405	0.009976987	-0.041923515	-0.058657583	-0.014861363	-0.065834634	0.014208426	-0.03459345	-0.010312656	0.0039828205	0.0193786	0.0029014484	0.08211822	-0.064018145	0.0016990476	0.07932363	-0.08512343	0.035993867	0.1290624	-0.0057967682	0.04522536	0.08754883	0.03018185	-0.08111299	-0.052857067	-0.012416902	-0.018623907	3.3066266e-07	-0.03381186	0.010039294	-0.018506676	-0.043446057	-0.059025634	-0.04399005	0.07035947	0.004601383	-0.013921658	0.008651348	-0.026578268	0.07398141	0.0080256965	-0.024217477	-0.073380925	0.040534165	-0.005648833	0.09225563	0.0859765	0.0809823	0.09411294	-0.049124047	0.028236102	0.03006214	0.056819893	-0.04062279	0.024813319	-0.015511254	0.0042245393	-0.043080114	0.10130666	-0.030942336	0.06419643	-0.058834262	-0.0019181956	0.0019025969	0.011066985	0.06251565	0.059114043	-0.05266128	-0.044033427	-0.059640355	0.002099131	-0.06118845	-0.058730748	-0.0077919494	-0.013886488	-0.00046216502	-0.07189736	0.056003552	0.0076824944	-0.02639428	-0.0015927308	-0.0065917172	-0.04017422	-0.0074063516	0.07856038	-0.09207845	-0.055088986	-0.045216646	0.003444152	-0.11497736	-0.007197772	0.02201662	-0.07288979	0.07188467	0.03395922	0.0055218013	0.019904215	-0.049765967	-0.011874649	-0.0041977167	-0.06421774	-0.07812388	0.030824421	-0.040074863	0.101908445	-0.02865159	0.033002183	0.04153933	0.04656074	0.03094278	0.074841484	-0.030802704	0.027274543	0.06066055	0.048691206	0.13430434	0.006277544	-0.015349042	0.012658947	-0.03580131	-0.048375618	0.102604195	0.16299415	1.7753258e-07	-0.03345106	0.051014718	-0.036646754	-0.0064574415	0.03530593	-0.045474164	-0.084450275	-0.025933798	0.014377264	-0.013775624	-0.017553138	-0.0629128	-0.02002499	-0.043628123	-0.08064325	-0.06584742	-0.05462084	-0.08062401	0.105111524	0.008106652	0.030255249	0.071656816	0.00034305872	0.026899401	0.021757705	0.020122416	0.001229977	0.024598049	0.03583771	-0.0025483829	-0.035694648	-0.07770271	-0.04050038	0.04661565	0.04407106	-0.096587814	-0.0021792678	-0.045664173	0.035552945	0.12367373	0.057620864	0.005128288	-0.010957251	-0.03000596	-0.0007330682	-0.016366797	0.039055184	-0.110612415	0.07703121	-0.03012543	-0.039493296	-0.038374078	0.09018621	-0.013147374	-0.04299651	-0.0042010844	0.07300435	-0.06286187	0.026917556	0.096305475	0.017999033	0.06293415	0.019356458	-0.06033406	-0.035370253	-0.014287272	0.07092352	-0.086501546	0.057055473	-0.015771918	-0.0023130765	-0.053656183	-0.008231951	-0.016578436	0.036014967	0.013192859	0.042363923	0.009470214	-0.052997246	-0.0053774007	-0.033752844	0.058550872	0.030646292	0.052335218	-0.0062957406	-0.027540458	-0.00012683395	-0.04028205	0.047963485	0.07241074	0.013925404	-0.04723598	0.024805415	-0.0006814042	-0.06084003	-2.1102538e-07	0.03679849	-0.0033773198	0.073154144	0.03364291	0.067438185	-0.10406985	-0.08968288	-0.021635111	0.025781058	-0.042107414	0.044205897	-0.024325067	-0.047750365	-0.037329465	0.0073539843	0.00052069745	-0.015518413	0.019681724	-0.008875217	-0.009121705	-0.024769751	-0.011700894	-0.016554328	-0.025131093	-0.00014257232	0.002972484	0.010302208	0.076702856	-0.020221654	0.07743216	-0.065940246	0.04306271	0.07651902	-0.07118681	-0.052068472	-0.0730668	-0.0136123	0.008894073	0.019974407	0.0036511426	0.051512	0.09911151	0.01631276	0.009744926	0.02844749	-0.03855804	-0.17368472	-0.10144637	-0.027837494	-0.04637611	0.08219471	-0.038992807	0.076864384	0.05322008	-0.034455158	0.022188846	0.08216245	0.06724354	0.00027036946	-0.0550804	-0.00091385195	-0.041226674	-0.0036264171	0.028271046
0.07254663	-0.021125661	-0.048952654	-0.0807834	0.019146608	-0.038026217	-0.017840525	-0.07478583	0.0056935693	-0.0089396415	0.062388584	0.022042897	0.060159914	-0.005535075	0.06206567	0.012953795	0.06264934	0.020113083	0.058012567	-0.040823083	-0.0039042505	0.06222935	0.028755823	0.0014470869	-0.04414252	0.022950515	0.07294931	0.056629647	0.0023526978	-0.039522197	0.04485294	-0.04345964	-0.055006728	0.00077302643	0.13012134	0.09568095	-0.010611459	0.05771464	0.0710577	-0.047291216	-0.0064852103	0.053131882	-0.0007641685	0.030327095	-0.021716272	-0.01949279	-0.0012071907	-0.010560888	0.078043304	-0.11996814	0.035863053	-0.050894137	-0.026624503	-0.013673471	-0.0700664	0.0843291	0.039675973	0.0029630098	0.037225053	-0.030306805	0.14460826	-0.016593724	0.004195714	-0.014929668	0.029578423	0.0074936873	-0.005599898	0.07211	0.027582893	-0.14931068	0.029258285	-0.018985571	-0.02001633	0.025028465	0.058281712	-0.0024262231	-0.025328245	-0.037651487	-0.021359148	0.006249797	0.019912569	0.0122701805	0.0717575	0.07501732	-0.052044258	-0.00615722	-0.01573945	-0.06670135	0.06683342	-0.04697898	0.018918362	-0.05258159	-0.09339713	0.0038748423	-0.016370345	-0.06262139	0.00036184216	0.00022525	-0.014665089	0.10113914	0.0352095	-0.03152108	0.047815226	0.048987992	0.027318256	-0.008051262	-0.05543704	0.027923847	0.00028727987	-0.027330248	-0.034621112	-0.016480323	-0.06061728	0.050423536	-0.0022596433	-0.03324473	0.055923607	-0.021766312	-0.07631774	-0.03475944	-0.087987095	-0.092503056	-0.023498548	-0.0029156639	0.053636525	-0.0029012205	-0.03903511	-8.277047e-08	-0.010605876	0.055595096	0.040243562	0.018622706	0.09082227	0.010624769	-0.013294556	0.04563918	-0.05604748	0.027100392	0.038740713	-0.043968927	0.010181331	0.0216031	0.031719588	-0.026546324	0.05487387	-0.04290365	-0.07028004	0.017817168	-0.062618695	-0.0032421704	-0.048755325	-0.03973871	-0.0256615	0.0547715	-0.0063005346	0.04268454	0.019605218	0.016926074	-0.10743992	0.0017119368	0.027063781	0.08182187	0.040043194	0.05188298	-0.053926233	-0.04438093	-0.050455272	0.010569976	0.05771546	0.09172938	0.006198097	0.08980588	0.10272472	0.005455714	0.009688169	0.04621716	0.09577275	-0.042810697	-0.016237026	0.017351879	-0.0549984	0.02571269	0.040616408	-0.042494234	-0.033477526	0.02369496	0.10780335	-0.008887525	0.028884454	0.030545393	-0.0577978	0.030717291	0.0869911	-0.11429187	-0.03663103	-0.06883139	0.06834029	-0.009793063	0.013857009	-0.029082274	0.12246321	0.1012591	-0.0034612387	0.0041212067	-0.14894128	0.12710047	-0.051483	-0.08028981	-0.02347485	-0.0042589917	-0.14842978	0.10448009	0.03270233	-0.07665996	-0.04461381	-0.09053768	-0.06823153	0.034808498	-0.07020569	0.082005	-0.0034956702	-0.051209163	-0.013382489	4.8882605e-08	0.061122466	-0.14335977	0.06808342	-0.052996635	-0.058920458	0.045948647	0.0249226	-0.06653924	-0.00881338	0.03329125	-0.080281004	-0.009676761	0.022940878	-0.023369415	0.021216605	0.09260411	0.041838262	0.056413334	-0.026984155	0.022824628	0.018506626	-0.034965854	0.0062764864	0.0047785053	0.027124368	0.0361392	-0.03802627	0.0018114472	-0.04714667	0.023135735	-0.12676075	0.006627212	-0.029933449	0.0686067	-0.06949968	0.05355787	-0.021558221	0.015229254	0.0041567055	-0.011647729	-0.014193336	-0.000533163	-0.008854332	0.076866165	-0.004984642	-0.021217609	-0.049270023	0.031987447	-0.047374107	0.0013291485	0.013459083	0.023733366	-0.045683213	0.010602538	0.020280259	0.023670513	-0.06475226	0.06193003	0.033080555	-0.018128429	0.001670134	-0.047757585	0.0016867857	0.08420036	0.0074823713	0.02505488	-0.013585372	0.11891048	-0.003585268	0.03180656	-0.041686527	0.018945333	0.030113012	-0.01005272	0.010415696	-0.008295418	0.046720635	-0.019598046	0.008634622	-0.040555853	0.01947562	-0.0074600824	-0.102248736	-0.007902814	0.07001057	0.041332297	-0.020870076	0.040560637	0.026362829	-0.05510735	0.004150399	0.094854526	-0.04138011	-0.06631471	-0.05724483	2.8620832e-07	-0.088080995	0.0075055286	-0.0059046033	0.03654383	-0.08312644	-0.011771249	0.038431082	0.020106355	-0.0012788462	0.044635426	-0.050856274	0.027148465	0.056414153	-0.016933836	-0.07178042	-0.010211873	0.009472324	-0.009628245	-0.02357457	0.07768161	-0.05037652	0.049150202	0.041656017	0.026073297	-0.016317118	-0.048087735	0.025461392	-0.08210648	0.09058685	-0.015977312	0.013243577	0.0022376645	0.0019895912	0.059156947	0.026673762	-0.038825598	-0.009439396	0.032390315	-0.065036915	-0.0074780984	-0.033989802	-0.07843382	-0.038748175	-0.0022407263	0.029042974	0.007493283	0.085616104	0.048413016	0.018438436	0.056000844	-0.12351769	0.04859349	-0.04982272	-0.016643167	0.025117038	-0.028243104	-0.049812447	-0.10146148	0.04015089	0.10372241	-0.06955305	0.018717147	-0.04390452	-0.0011632533
0.0604248	-0.01678529	-0.0567373	-0.08195535	0.019109245	-0.03588943	-0.010377237	-0.08149248	0.013532888	-0.017019762	0.06669393	0.039920263	0.05696022	-0.018189512	0.069027774	0.009570283	0.05994774	0.037471663	0.05802958	-0.036141552	-0.005328867	0.06595582	0.024266666	-0.0007603375	-0.055170123	0.022349332	0.060893737	0.061161324	0.0036756694	-0.051435117	0.046112884	-0.048534315	-0.048768695	-0.000109520624	0.12228152	0.09236738	-0.011914969	0.057719957	0.06770435	-0.056464564	-0.01062427	0.044926867	-0.006385661	0.027159424	-0.015486028	-0.022781247	-0.006503506	-0.02373316	0.08430922	-0.12636602	0.029801978	-0.05546948	-0.017110122	0.0037623595	-0.064395726	0.08329694	0.039185397	0.007565091	0.03970681	-0.0313911	0.15134218	-0.0116274925	0.00012075094	-0.0076451194	0.016270444	0.0027787762	-0.0014420126	0.07290132	0.027866935	-0.1547356	0.04387957	-0.024961675	-0.006604091	0.02105931	0.051097106	0.0076359455	-0.020282187	-0.047700666	-0.020694913	-0.00063246605	0.016842512	0.005608862	0.072863474	0.07487165	-0.055731554	0.010754343	-0.022788875	-0.0746848	0.06875414	-0.04197014	0.0012419061	-0.047350734	-0.08897513	-0.001916815	-0.01808616	-0.0526411	0.0036509961	0.004571796	-0.013568113	0.120837346	0.03285738	-0.02589571	0.05011482	0.055278905	0.02942109	-0.0091025885	-0.05213387	0.030482858	-0.00021468748	-0.025844589	-0.036507137	-0.0067441976	-0.06111397	0.05920111	-0.0032914819	-0.035975855	0.046655584	-0.02467068	-0.08152998	-0.031742424	-0.08342894	-0.07841457	-0.035841107	-0.0023658047	0.048976067	-0.007928513	-0.042585757	-1.28592355e-08	-0.008757899	0.052911304	0.040412635	0.005267359	0.09421142	0.01319579	-0.013907329	0.047879156	-0.0615749	0.030239044	0.03864942	-0.048737057	0.008283317	0.0144367	0.02436332	-0.024784232	0.04635557	-0.038990796	-0.076488405	0.015573917	-0.054250903	0.0015126648	-0.0505234	-0.044167195	-0.03376119	0.055655293	0.00093177176	0.04468143	0.033691216	0.018798783	-0.108439244	0.009018115	0.03860233	0.07909063	0.035586912	0.0518977	-0.057173792	-0.047812898	-0.06084646	0.0133276	0.059192404	0.087812826	0.013600582	0.09446437	0.09302025	0.007515876	0.0072094677	0.04052134	0.104497954	-0.041589458	-0.009809513	0.022069382	-0.065357514	0.034860473	0.03562213	-0.048153326	-0.036469862	0.03322462	0.10072194	-0.018835424	0.018328791	0.035555698	-0.062558554	0.028862245	0.08608157	-0.108712494	-0.03041739	-0.07114666	0.0706427	-0.009840752	0.008483142	-0.026778936	0.12090166	0.0996498	-0.0028663492	-0.0018723565	-0.15465616	0.12560447	-0.049252696	-0.08196704	-0.015011284	-0.0072428584	-0.14001188	0.11016454	0.028778628	-0.075793944	-0.037655573	-0.08729171	-0.066107936	0.036859173	-0.07828834	0.077704206	-0.011202054	-0.048292574	-0.024442287	6.688691e-08	0.06499819	-0.1502403	0.06816921	-0.053271905	-0.060247503	0.049522486	0.017044984	-0.07327955	-0.0050387	0.04206047	-0.061624933	-0.0038651621	0.007996169	-0.026105978	0.02913469	0.081359535	0.03221368	0.055524223	-0.02705305	0.016416987	0.015554194	-0.03278378	0.011016551	0.0069775353	0.023584733	0.03332462	-0.027503125	0.0064781965	-0.044254925	0.01768716	-0.12692524	0.0009559242	-0.031091956	0.07194193	-0.07222352	0.060655095	-0.028871652	0.0036743903	0.0034262314	-0.021062782	-0.017084507	0.003907439	-0.0057957396	0.08985406	-0.0042098453	-0.02950532	-0.04982509	0.036458284	-0.04020751	0.009456478	0.011280277	0.018267067	-0.03578769	0.013402045	0.023974465	0.036791004	-0.06364054	0.057816826	0.024368942	-0.01694921	0.0069867834	-0.037706446	-0.0007177677	0.08892391	0.00698133	0.02056803	-0.017183363	0.11392697	-0.007457062	0.02829328	-0.042384382	0.024521075	0.031233994	-0.010297156	0.014487677	0.00034432628	0.03764698	-0.025736682	-0.0021829826	-0.034362096	0.024768021	-0.010429587	-0.09792483	-0.008762288	0.06253003	0.035331003	-0.017146315	0.051456302	0.02555872	-0.06376426	-0.006015415	0.08816344	-0.030482825	-0.059798483	-0.052473225	2.5253746e-07	-0.09202389	0.003624869	0.0017471402	0.031165719	-0.07161607	-0.006733845	0.036866713	0.017317763	-0.007681937	0.046091992	-0.04853228	0.024686389	0.05404881	-0.01719179	-0.06787621	-0.015711535	0.009792889	-0.016110644	-0.022641301	0.07607058	-0.047696088	0.050243024	0.04885524	0.024610696	-0.016141975	-0.047909282	0.02291863	-0.079392254	0.08777439	-0.015362748	0.0071699778	0.009459278	0.0053903707	0.055931114	0.03637333	-0.022060199	-0.0063804546	0.03784801	-0.059551027	-0.0065725576	-0.034094583	-0.09348131	-0.04048549	-0.0019042686	0.030243952	0.009479246	0.08780503	0.050952747	0.019066976	0.05098117	-0.12208572	0.042776268	-0.050165303	-0.021520294	0.00435972	-0.036863584	-0.057752896	-0.098585755	0.02756562	0.099033944	-0.059372075	0.020232957	-0.04193539	0.013132849
0.0604248	-0.01678529	-0.0567373	-0.08195535	0.019109245	-0.03588943	-0.010377237	-0.08149248	0.013532888	-0.017019762	0.06669393	0.039920263	0.05696022	-0.018189512	0.069027774	0.009570283	0.05994774	0.037471663	0.05802958	-0.036141552	-0.005328867	0.06595582	0.024266666	-0.0007603375	-0.055170123	0.022349332	0.060893737	0.061161324	0.0036756694	-0.051435117	0.046112884	-0.048534315	-0.048768695	-0.000109520624	0.12228152	0.09236738	-0.011914969	0.057719957	0.06770435	-0.056464564	-0.01062427	0.044926867	-0.006385661	0.027159424	-0.015486028	-0.022781247	-0.006503506	-0.02373316	0.08430922	-0.12636602	0.029801978	-0.05546948	-0.017110122	0.0037623595	-0.064395726	0.08329694	0.039185397	0.007565091	0.03970681	-0.0313911	0.15134218	-0.0116274925	0.00012075094	-0.0076451194	0.016270444	0.0027787762	-0.0014420126	0.07290132	0.027866935	-0.1547356	0.04387957	-0.024961675	-0.006604091	0.02105931	0.051097106	0.0076359455	-0.020282187	-0.047700666	-0.020694913	-0.00063246605	0.016842512	0.005608862	0.072863474	0.07487165	-0.055731554	0.010754343	-0.022788875	-0.0746848	0.06875414	-0.04197014	0.0012419061	-0.047350734	-0.08897513	-0.001916815	-0.01808616	-0.0526411	0.0036509961	0.004571796	-0.013568113	0.120837346	0.03285738	-0.02589571	0.05011482	0.055278905	0.02942109	-0.0091025885	-0.05213387	0.030482858	-0.00021468748	-0.025844589	-0.036507137	-0.0067441976	-0.06111397	0.05920111	-0.0032914819	-0.035975855	0.046655584	-0.02467068	-0.08152998	-0.031742424	-0.08342894	-0.07841457	-0.035841107	-0.0023658047	0.048976067	-0.007928513	-0.042585757	-1.28592355e-08	-0.008757899	0.052911304	0.040412635	0.005267359	0.09421142	0.01319579	-0.013907329	0.047879156	-0.0615749	0.030239044	0.03864942	-0.048737057	0.008283317	0.0144367	0.02436332	-0.024784232	0.04635557	-0.038990796	-0.076488405	0.015573917	-0.054250903	0.0015126648	-0.0505234	-0.044167195	-0.03376119	0.055655293	0.00093177176	0.04468143	0.033691216	0.018798783	-0.108439244	0.009018115	0.03860233	0.07909063	0.035586912	0.0518977	-0.057173792	-0.047812898	-0.06084646	0.0133276	0.059192404	0.087812826	0.013600582	0.09446437	0.09302025	0.007515876	0.0072094677	0.04052134	0.104497954	-0.041589458	-0.009809513	0.022069382	-0.065357514	0.034860473	0.03562213	-0.048153326	-0.036469862	0.03322462	0.10072194	-0.018835424	0.018328791	0.035555698	-0.062558554	0.028862245	0.08608157	-0.108712494	-0.03041739	-0.07114666	0.0706427	-0.009840752	0.008483142	-0.026778936	0.12090166	0.0996498	-0.0028663492	-0.0018723565	-0.15465616	0.12560447	-0.049252696	-0.08196704	-0.015011284	-0.0072428584	-0.14001188	0.11016454	0.028778628	-0.075793944	-0.037655573	-0.08729171	-0.066107936	0.036859173	-0.07828834	0.077704206	-0.011202054	-0.048292574	-0.024442287	6.688691e-08	0.06499819	-0.1502403	0.06816921	-0.053271905	-0.060247503	0.049522486	0.017044984	-0.07327955	-0.0050387	0.04206047	-0.061624933	-0.0038651621	0.007996169	-0.026105978	0.02913469	0.081359535	0.03221368	0.055524223	-0.02705305	0.016416987	0.015554194	-0.03278378	0.011016551	0.0069775353	0.023584733	0.03332462	-0.027503125	0.0064781965	-0.044254925	0.01768716	-0.12692524	0.0009559242	-0.031091956	0.07194193	-0.07222352	0.060655095	-0.028871652	0.0036743903	0.0034262314	-0.021062782	-0.017084507	0.003907439	-0.0057957396	0.08985406	-0.0042098453	-0.02950532	-0.04982509	0.036458284	-0.04020751	0.009456478	0.011280277	0.018267067	-0.03578769	0.013402045	0.023974465	0.036791004	-0.06364054	0.057816826	0.024368942	-0.01694921	0.0069867834	-0.037706446	-0.0007177677	0.08892391	0.00698133	0.02056803	-0.017183363	0.11392697	-0.007457062	0.02829328	-0.042384382	0.024521075	0.031233994	-0.010297156	0.014487677	0.00034432628	0.03764698	-0.025736682	-0.0021829826	-0.034362096	0.024768021	-0.010429587	-0.09792483	-0.008762288	0.06253003	0.035331003	-0.017146315	0.051456302	0.02555872	-0.06376426	-0.006015415	0.08816344	-0.030482825	-0.059798483	-0.052473225	2.5253746e-07	-0.09202389	0.003624869	0.0017471402	0.031165719	-0.07161607	-0.006733845	0.036866713	0.017317763	-0.007681937	0.046091992	-0.04853228	0.024686389	0.05404881	-0.01719179	-0.06787621	-0.015711535	0.009792889	-0.016110644	-0.022641301	0.07607058	-0.047696088	0.050243024	0.04885524	0.024610696	-0.016141975	-0.047909282	0.02291863	-0.079392254	0.08777439	-0.015362748	0.0071699778	0.009459278	0.0053903707	0.055931114	0.03637333	-0.022060199	-0.0063804546	0.03784801	-0.059551027	-0.0065725576	-0.034094583	-0.09348131	-0.04048549	-0.0019042686	0.030243952	0.009479246	0.08780503	0.050952747	0.019066976	0.05098117	-0.12208572	0.042776268	-0.050165303	-0.021520294	0.00435972	-0.036863584	-0.057752896	-0.098585755	0.02756562	0.099033944	-0.059372075	0.020232957	-0.04193539	0.013132849
0.06772647	-0.014121359	-0.05319	-0.0775289	0.029563844	-0.030965548	-0.021157892	-0.08776881	-0.003515976	-0.009392317	0.05917706	0.03424963	0.044639368	-0.017772693	0.0791466	0.015887711	0.063322514	0.023044325	0.041747075	-0.039275937	-0.00956868	0.064730704	0.0114614125	-0.008219737	-0.062564746	0.03479473	0.052476596	0.05645198	0.002096984	-0.047901716	0.03865933	-0.052632477	-0.06701136	0.0015211678	0.13261247	0.094950035	-0.0010214482	0.04522238	0.08055299	-0.064732365	0.010119155	0.04617424	-0.0082580885	0.028520377	-0.01868753	-0.013225259	-0.00585795	-0.02408152	0.10203441	-0.12311842	0.034492828	-0.051581614	-0.022422718	-0.0053853947	-0.062601484	0.087008476	0.054863263	-0.0032757316	0.029094234	-0.035430763	0.15313601	-0.015153496	-0.0025865105	-0.011905445	0.015992494	-0.0013990822	-0.0010228037	0.070515	0.03913852	-0.14729972	0.029719751	-0.016358312	-0.018430917	0.02457405	0.06739711	0.0019366038	-0.027820598	-0.03838024	-0.0135951135	0.0062523107	0.029909037	0.0065396577	0.07600299	0.08531971	-0.0544404	0.006859524	-0.015681915	-0.052846055	0.079185836	-0.042009547	0.01118604	-0.056019563	-0.088398084	0.007902435	-0.017324597	-0.060342796	0.0014933187	0.0066770897	-0.002888364	0.1166207	0.038856875	-0.04136451	0.03820395	0.032676358	0.032001253	-0.0065551414	-0.044816513	0.025683638	0.0025349953	-0.023589324	-0.034876943	-0.019348748	-0.04322123	0.050582163	0.003762825	-0.02350022	0.029620005	-0.01819401	-0.06969318	-0.03658331	-0.09129435	-0.092188716	-0.026055146	-0.0071791136	0.05616729	-0.0018442073	-0.04377808	-1.2540993e-09	-0.017683309	0.055276833	0.033579897	0.014888661	0.09253564	0.0041145333	-0.024014276	0.043705158	-0.0608842	0.02474615	0.0421642	-0.043638784	0.015525252	0.0050390684	0.00821522	-0.042212848	0.05878009	-0.04968627	-0.063639686	0.0069230613	-0.052931022	-0.017389162	-0.045058087	-0.033163436	-0.02262988	0.0679335	-0.010686722	0.0455159	0.026040042	0.017256603	-0.10558042	0.007159905	0.031818092	0.07588406	0.03237594	0.058288295	-0.050575864	-0.04277458	-0.05597971	-0.0016080309	0.039097704	0.07565759	0.004693095	0.08891243	0.10484439	0.0044634966	0.015279115	0.027883135	0.10685765	-0.04207027	-0.009861104	0.012792588	-0.06760433	0.027907835	0.042089634	-0.046442755	-0.046293564	0.031120144	0.09478168	-0.019951172	0.030722188	0.044708308	-0.0585018	0.0261418	0.08979367	-0.121309265	-0.052128363	-0.057274714	0.06746658	-0.018517112	0.003702437	-0.03395206	0.11717367	0.08344722	-0.007332544	0.0040489696	-0.1516712	0.119029	-0.041995853	-0.08099197	-0.007087088	-0.0018827992	-0.13342848	0.10931988	0.0585985	-0.07367867	-0.04046242	-0.091149755	-0.06887376	0.045124147	-0.075861275	0.0836573	0.0019021964	-0.045574382	-0.016501691	2.4432957e-08	0.061421685	-0.14904487	0.06381352	-0.057588838	-0.06846978	0.05661593	0.018513402	-0.07500086	0.0014202475	0.035738766	-0.07150901	0.0029789584	0.027032748	-0.028550725	0.008282386	0.07836876	0.041444186	0.058319055	-0.037347738	0.029658092	0.012734275	-0.033431377	0.01138658	0.0038526203	0.02032768	0.03202964	-0.01653609	0.009070723	-0.048575044	0.014476934	-0.1305706	-0.00027722213	-0.021759652	0.060847808	-0.06511625	0.052484896	-0.017286781	0.0058486555	0.0003454771	-0.024972362	-0.01848049	0.0026397645	0.0013626774	0.0751928	-0.014970948	-0.022092741	-0.059234504	0.037500773	-0.04927056	0.008614278	0.0203663	0.023256572	-0.036922082	0.009886222	0.024153788	0.044031076	-0.064343326	0.06642166	0.031486645	-0.011993189	0.013643472	-0.044133876	-0.0033006473	0.083980404	0.0047204485	0.020290263	-0.00914184	0.12470561	-0.002061151	0.033155993	-0.04919396	0.020154385	0.023690607	-0.011256683	0.022948876	-0.016219825	0.04594269	-0.026351318	-0.007317293	-0.035194613	0.027383491	-0.011225428	-0.09957898	-0.029886141	0.06736977	0.026392223	-0.012563176	0.038354248	0.029740022	-0.06356378	-0.010007279	0.094198085	-0.028727684	-0.058701646	-0.047334004	1.4442458e-07	-0.076570906	0.00926966	0.0071905158	0.01846393	-0.067875616	-0.0071262806	0.03085501	0.01742259	0.0031448174	0.048753984	-0.04555516	0.03236488	0.05085399	-0.01823878	-0.07709596	-0.0073904	0.0020905314	-0.031126551	-0.018879334	0.06665662	-0.054141816	0.03977528	0.050267607	0.022403333	-0.017850429	-0.03669493	0.019809812	-0.08384068	0.097644955	-0.0065213633	0.0052983095	0.0030589001	0.0010486695	0.07200656	0.025742002	-0.025813606	0.001126924	0.040586155	-0.058414035	-0.012299136	-0.030746907	-0.07671509	-0.043538205	-0.0044280374	0.01752197	-0.0041822544	0.09187564	0.04861808	0.018143753	0.046009712	-0.11987078	0.03994293	-0.054339733	-0.0153335305	0.0053594746	-0.026924359	-0.05706447	-0.104208305	0.026260402	0.10110356	-0.067975126	0.034687467	-0.04605273	-0.002494275
-0.08102182	0.06383063	0.038853794	-0.004339168	-0.024458023	0.09796742	-0.0023308427	0.027741954	0.0072927964	-0.00913649	0.017847339	0.014293785	0.042909697	-0.032442514	-0.052153632	-0.018970337	-0.025916053	0.07655014	-0.09682422	0.03366407	0.107779056	-0.022565138	-0.12748723	0.017705759	0.092516266	-0.048818592	-0.030248621	0.0013065387	0.053925384	0.03873671	0.058834635	0.020208234	0.05313724	-0.018504323	-0.031131912	-0.11936376	-0.08305433	-0.048361372	-0.037587117	0.0016653258	-0.01705198	-0.10188751	-0.0132783735	0.028218433	-0.014407433	0.07185322	-0.011796928	0.07666687	-0.07004924	0.0654974	-0.016841482	-0.02235575	-0.02320562	0.036104385	0.012592498	-0.06370579	0.020865848	0.04019912	-0.095446125	0.08494032	-0.087395556	-0.01685863	0.0061110775	0.016559456	0.053491242	0.036244128	0.026196051	-0.07796803	-0.012706497	0.10147127	0.0065495665	0.011658223	0.00836673	0.046364915	-0.08135647	0.06397667	-0.021777468	0.06409393	-0.02081429	-0.08884366	-0.09686381	-0.012067537	0.01051808	-0.104187824	0.03710048	-0.055155475	-0.0051198835	0.08809386	0.06667348	0.014227683	0.006925237	-0.022464724	0.15739167	-0.066029966	-0.00012353665	0.028213687	-0.031557653	-0.011404048	0.045961183	0.004249784	-0.08945483	0.03343646	-0.034633804	-0.035671763	0.04434286	-0.073584095	-0.00305889	-0.06329193	-0.004634927	-0.027339047	0.02293958	0.048645332	0.11209781	-0.018270532	-0.016556967	0.041055035	-0.031308435	0.051015347	0.077566214	-0.08578537	0.028374707	0.0415283	0.0032829526	-0.040401552	-0.09568687	-0.048608072	0.05497369	-6.389706e-08	-0.026461447	-0.05949815	-0.05667576	0.039112575	-0.032788232	-0.034281917	0.0059393635	-0.035449423	0.002625655	0.039352354	0.01836094	-0.0011263522	0.07690784	-0.045057733	-0.09615073	0.07517481	0.020919016	0.075609766	0.09818593	0.05918508	0.13885513	-0.010814412	0.013469174	0.060209572	0.015758974	-0.051635943	-0.025304873	-0.026264977	-0.009521368	-0.030182479	0.124593824	-0.038890332	0.07419606	-0.034048688	0.028622676	0.002151736	0.061125867	0.04067294	0.095995635	-0.034269832	-0.035569966	-0.05195361	0.010838603	-0.064730674	-0.097150385	-0.018295502	-0.047619183	0.0012198023	-0.072862245	0.07077977	0.021719454	0.035663925	0.01874409	-0.031664614	0.013320745	-0.01017879	0.0069242953	-0.024231384	-0.04191691	-0.010047461	0.012461592	-0.04024991	0.016278656	0.028597135	-0.06638565	0.04144459	-0.0077526704	-0.0070146015	0.012274322	-0.08289278	0.013019797	-0.00225987	-0.10704651	-0.048158813	-0.0014951386	-0.05471756	0.13035904	-0.021167707	0.02943186	0.00038388572	-0.0043022027	0.03821295	0.06030192	0.028001847	-0.050149802	0.06626289	0.021506943	0.08500089	-0.020473823	-0.0017707354	0.057114992	-0.0770703	-0.036895975	0.035308484	0.16164276	-2.7378027e-07	-0.02702744	0.026935447	-0.044675376	-0.03587252	0.014594042	-0.07941936	-0.03511777	-0.0361778	-0.00090185023	-0.045292992	0.005223724	-0.06636558	-0.0057906234	-0.03134301	-0.038880307	-0.03685575	-0.08955639	-0.03606723	0.069931604	0.05512624	0.020103406	-0.009268898	-0.0072092875	0.059139434	0.012624488	0.005477033	0.03542194	-0.0140236085	0.0013828154	0.012560504	-0.0072345976	-0.060300197	-0.020952262	0.0382047	0.0054742754	-0.15207222	0.015108665	-0.03619752	0.05269436	0.06660547	0.059092537	0.013879059	0.044959106	0.019624228	-0.024470607	-0.043607783	0.00066369533	-0.07173142	0.0679876	-0.054228086	-0.026347999	-0.03948976	0.058350608	-0.021576539	-0.052439712	-0.014702215	0.07875875	-0.031924292	0.06584786	0.06635455	0.02961066	0.055091605	0.0049859756	-0.04533629	-0.050367933	-0.013786443	0.022925505	-0.040242624	0.060319077	0.0020144035	0.02389035	-0.07210832	-0.049147226	-0.028889552	0.0549656	-0.018910427	-0.018616099	-0.01507573	-0.0467414	-0.009290864	-0.047094565	0.07958253	0.06950121	0.082826324	-0.06077005	-0.03952028	0.06967109	-0.0148904435	0.020265538	0.04336281	0.058444854	-0.024947483	0.036813915	-0.01971112	-0.07113117	-4.923261e-07	0.021214947	-0.014856834	0.056750063	0.006779994	0.06199959	-0.0037087034	-0.03523017	-0.0957815	0.014635432	-0.04665929	0.035054766	-0.003288124	-0.01449107	-0.09186471	0.024088906	-0.042340722	0.0023261623	-0.06437918	-0.018405719	0.02823913	-0.008932565	-0.0199373	0.016263073	0.012063324	-0.00729041	0.0077641415	0.006019548	0.08095266	-0.018770428	0.07882833	-0.036146645	0.045525536	0.02866176	-0.02884707	-0.01663814	-0.041109826	0.030451667	0.019721854	0.04847056	-0.012064608	0.041783348	0.006939603	-0.020100784	0.04537778	0.036885645	-0.011281361	-0.12731609	-0.1250787	-0.066452816	-0.04703273	0.010087103	-0.06706755	0.067770846	0.041716654	-0.0316017	0.011457527	0.07781267	0.07451171	0.02784348	-0.021313038	0.035173338	0.05632354	0.020144155	-0.017231489
0.069932364	-0.028511979	-0.05491695	-0.079104915	0.015191762	-0.042982355	-0.023948502	-0.08496624	0.0041569616	-0.017992487	0.053756732	0.035953842	0.045695897	-0.009669031	0.061014738	0.009068375	0.048703745	0.054269947	0.056806102	-0.03058714	-0.0054007904	0.07493456	0.024669416	1.9413637e-05	-0.05160285	0.023663955	0.059088122	0.05869241	0.0033018303	-0.023529902	0.05298834	-0.051563106	-0.053871647	-0.0034625318	0.12943894	0.08540356	-0.014042609	0.061806772	0.068868525	-0.049653083	0.0040772404	0.046907514	0.010161175	0.03402123	-0.02530129	-0.0106102135	-0.0040276833	-0.030273773	0.08245476	-0.11949441	0.027579147	-0.05286302	-0.025900794	-0.01190996	-0.063994594	0.077684805	0.04598803	0.00039459593	0.030528678	-0.04191172	0.15601747	-0.01253886	0.011273422	-0.0176571	0.014077929	0.004000379	0.006279591	0.08526674	0.029550979	-0.14510635	0.035423018	-0.021712208	-0.015010084	0.03901488	0.04979614	-0.0009390617	-0.025440497	-0.0404651	-0.018633524	-0.0014403509	0.012439941	0.0077957874	0.08920341	0.065361746	-0.049657676	0.005992814	-0.013090332	-0.0780754	0.070951775	-0.038134582	0.017869586	-0.0687868	-0.07876515	-0.009524041	-0.01889793	-0.07068143	0.014902662	-0.0031064374	-0.010172043	0.059235476	0.025333924	-0.04828374	0.051465522	0.037887786	0.024194198	0.0105306255	-0.047302775	0.024438778	0.011738229	-0.022589056	-0.04255231	-0.020879675	-0.066363685	0.05517188	-0.007132856	-0.0491778	0.039555483	-0.03407505	-0.06439379	-0.044126213	-0.09563548	-0.09303576	-0.034672845	-0.0181748	0.061850067	0.006949903	-0.05461598	-3.090582e-07	0.0020856834	0.07021563	0.028444054	0.01120578	0.080970705	0.011463324	-0.012930848	0.04232718	-0.05387847	0.024895588	0.045043115	-0.028001284	0.009594882	0.014155407	0.006580246	-0.033048894	0.05140845	-0.0412444	-0.05313105	0.011347087	-0.06751258	-0.0021988228	-0.04451242	-0.037069943	-0.030933341	0.054664485	0.003719862	0.045998972	0.0153466305	0.021442449	-0.1039031	0.008465712	0.03239821	0.0796025	0.03914668	0.06060576	-0.045896683	-0.03868522	-0.056765333	0.002727309	0.052990835	0.081365645	0.009818275	0.09364011	0.10514745	0.017529972	0.010051971	0.01990615	0.10227404	-0.044379834	0.0050384942	0.010855228	-0.06828461	0.035630226	0.03460786	-0.046398763	-0.039558742	0.035809092	0.101793826	-0.021113334	0.03123617	0.022034988	-0.05487085	0.024864437	0.070294924	-0.11009014	-0.03373713	-0.05773184	0.068026945	-0.014471077	0.008714266	-0.027697396	0.11832818	0.086430565	-0.030353755	0.01234836	-0.15740277	0.12647489	-0.04756957	-0.08157386	-0.015671788	-0.020212105	-0.14818726	0.108992	0.045021962	-0.088651486	-0.031996537	-0.08377895	-0.079223886	0.033133466	-0.07164344	0.08765606	-0.0011702973	-0.049523797	-0.007861448	-2.8353887e-07	0.060347848	-0.16043705	0.06605607	-0.045473605	-0.06880584	0.058314964	0.024582364	-0.08041627	-0.0015918615	0.027229015	-0.07610547	0.00035910952	0.014816181	-0.028027598	0.0036571783	0.07951034	0.027241973	0.05931642	-0.025178809	0.027209014	0.009322681	-0.022683993	0.007164301	0.007794649	0.027111867	0.02536424	-0.03387897	-0.013500604	-0.040913153	0.015171356	-0.13010842	0.0018641273	-0.031221034	0.055835642	-0.063955836	0.049954798	-0.025632614	0.018209	0.00014366057	-0.014023765	-0.010151225	-0.004308151	-0.0039337403	0.072999015	-0.008227551	-0.019475149	-0.049071062	0.028929248	-0.055338632	0.006732148	0.017801268	0.016200203	-0.03314329	0.0019094393	0.017376894	0.044599086	-0.05842138	0.07081019	0.025629591	-0.006816003	0.005491744	-0.05077826	0.0042162184	0.08948336	-0.0024545519	0.019787082	-0.014785258	0.1097877	-0.002749949	0.030287184	-0.05823168	0.008262407	0.034362808	-0.01788955	0.024731467	-0.023428667	0.050713297	-0.018429518	0.006945531	-0.039395344	0.020392532	0.0007667765	-0.09431455	-0.019534905	0.074384324	0.02211234	-0.018246666	0.05127919	0.024043424	-0.051702917	-0.008873392	0.08500629	-0.026385231	-0.053991612	-0.053071152	-1.265053e-07	-0.08083768	0.0010664243	0.010792031	0.021981807	-0.07831061	-0.003597083	0.03476455	0.031070301	0.0004291565	0.05806277	-0.052333746	0.021917576	0.051091786	-0.014973415	-0.07570902	-0.021690078	0.008683796	-0.008930079	-0.026760126	0.08934926	-0.0609676	0.041440096	0.04860673	0.023512091	-0.023382474	-0.04975617	0.010465898	-0.090779796	0.09316483	-0.017473571	0.008692269	0.0043638605	0.0051860013	0.073057204	0.028636191	-0.019648539	-0.01174482	0.043701634	-0.062083036	-0.005775561	-0.03175767	-0.09362733	-0.03116021	-0.005659448	0.027804602	0.01829747	0.08732159	0.038807005	0.01690937	0.054773312	-0.12560551	0.042411245	-0.051093865	-0.020437423	0.0100537315	-0.029338345	-0.06377867	-0.10124566	0.042444177	0.09096926	-0.072704405	0.013557497	-0.04386082	0.005001376
0.06135313	-0.011766698	-0.047393236	-0.08023246	0.022212282	-0.033334255	-0.01304915	-0.08978383	0.0013638141	-0.02118918	0.058528204	0.03033489	0.057153545	-0.00887118	0.05641506	0.010716139	0.059658393	0.037735753	0.051471412	-0.03440076	-0.008231274	0.057962332	0.026338387	0.0012355362	-0.04911705	0.03149164	0.060395557	0.062381864	0.01278352	-0.041401222	0.05332389	-0.053970195	-0.051009633	0.002764638	0.12460494	0.0949072	-0.0097806575	0.052982632	0.075242	-0.054796495	0.0043252697	0.047158074	0.00757	0.026732994	-0.016400184	-0.014278197	-0.0064938325	-0.018439492	0.075871386	-0.1227238	0.039193258	-0.053403184	-0.016879069	-0.013535836	-0.06938173	0.08472778	0.046768293	0.0028451472	0.032926	-0.03511083	0.1452049	-0.0075475755	0.0029553727	-0.011803417	0.016951596	0.0036468112	-0.00061434624	0.07400759	0.030302556	-0.14656816	0.043415144	-0.02407252	-0.009436887	0.040071778	0.054421656	0.0037714376	-0.023232158	-0.036915444	-0.018195745	-0.0013556491	0.018647151	0.0050170324	0.07806695	0.06725679	-0.053067148	-0.002886432	-0.017745402	-0.07140787	0.07325954	-0.047515143	0.017875567	-0.05636418	-0.085081965	0.0026600407	-0.01506336	-0.06322498	0.008952254	0.011214932	-0.009390399	0.11766661	0.0355064	-0.035476945	0.049013935	0.04339933	0.022943513	-0.0055428487	-0.06688655	0.023933217	-0.002480946	-0.024955243	-0.032490704	-0.00920893	-0.069716014	0.055210736	-0.0065409974	-0.032886606	0.04110621	-0.028544601	-0.080050476	-0.04872886	-0.08973353	-0.08382978	-0.03796413	-0.010765674	0.05593719	-0.0013056007	-0.04708892	3.344763e-08	-0.014209324	0.05695088	0.031789016	0.016870989	0.08317764	0.01485815	-0.011232111	0.04163164	-0.06970095	0.024319781	0.039822295	-0.04183085	0.007380953	0.011097896	0.02160456	-0.026868012	0.053351585	-0.045838535	-0.05618469	0.017430957	-0.05605565	1.657215e-05	-0.053425085	-0.035429306	-0.036429286	0.058221247	0.001273135	0.042376388	0.02301096	0.020474656	-0.108962014	0.006190526	0.029894693	0.07627803	0.036741905	0.055271804	-0.052379213	-0.049702484	-0.060062423	0.014897452	0.060220063	0.08864598	0.011608854	0.09802539	0.097498715	0.011359451	0.0012897094	0.04016176	0.10109954	-0.041034702	-0.010333596	0.01707492	-0.06760282	0.02188271	0.047818184	-0.050462082	-0.03817712	0.0332469	0.11395318	-0.020741848	0.023161484	0.030977756	-0.06201674	0.036713373	0.09025959	-0.11297375	-0.026765099	-0.06817096	0.07032343	-0.01739693	0.010617409	-0.026467254	0.113452256	0.09974984	-0.009285676	0.0038162898	-0.14864363	0.12517956	-0.047720496	-0.085792705	-0.022042936	-0.006070934	-0.13922514	0.10965033	0.032488555	-0.0758952	-0.03963037	-0.08697044	-0.07299363	0.03560732	-0.07477525	0.08637956	-0.0030269641	-0.052898753	-0.009663415	6.7193426e-08	0.056624133	-0.1473322	0.07040024	-0.059581965	-0.060170826	0.05257007	0.029012106	-0.07552384	-0.008391142	0.033413112	-0.07590683	-0.01421132	0.022116654	-0.03229462	0.010017769	0.08196783	0.030525794	0.058285035	-0.024972793	0.028323732	0.018701214	-0.03940864	0.01033401	0.0026490437	0.031546056	0.027947797	-0.035624087	0.004940725	-0.041491307	0.017929375	-0.12447866	0.0017901683	-0.035012394	0.06906028	-0.06902226	0.04905152	-0.027053602	0.009779407	0.004345726	-0.014960367	-0.016305303	0.0058596353	-0.012317001	0.084910296	-0.016955834	-0.030953547	-0.04181019	0.031972557	-0.053494643	0.009473062	0.010549645	0.026530283	-0.03093095	0.0111567555	0.012379484	0.037808456	-0.061224107	0.0694703	0.024890969	-0.019553147	0.012368477	-0.04061809	0.0058248634	0.07561879	0.010691202	0.015910324	-0.00958746	0.116711795	0.0028438948	0.031963196	-0.04512627	0.011673285	0.027544282	-0.007361655	0.018871007	-0.0066248006	0.041769106	-0.021047877	-0.00061981083	-0.03945499	0.01606979	-0.010806524	-0.093392715	-0.009147062	0.06851043	0.0344023	-0.019128798	0.042969126	0.02883184	-0.059992127	0.0029101355	0.09321184	-0.027595222	-0.051911872	-0.047271907	2.3811877e-07	-0.083302364	-0.0016176704	-0.007984315	0.028935893	-0.07767845	-0.011752571	0.033164162	0.020506626	-0.008181271	0.051498473	-0.04803989	0.028490525	0.055870157	-0.023092635	-0.0712284	-0.009943753	0.011777806	-0.009843222	-0.029243456	0.078111194	-0.052506205	0.046462424	0.04655961	0.026502512	-0.024415908	-0.04828832	0.02749235	-0.086569786	0.09586545	-0.011899086	0.0045086285	0.0053921356	-0.0006212602	0.07451173	0.02585589	-0.034360938	-0.008392866	0.03184492	-0.053533684	-0.0052312906	-0.028199323	-0.07860816	-0.04798807	0.000678546	0.02418322	0.0074531487	0.07750628	0.042971976	0.020108832	0.065415375	-0.12249961	0.053532172	-0.051312093	-0.007972568	0.0164832	-0.028200313	-0.054629084	-0.10091028	0.037147816	0.09630506	-0.06930671	0.012315215	-0.032235965	0.003964461
0.06135313	-0.011766698	-0.047393236	-0.08023246	0.022212282	-0.033334255	-0.01304915	-0.08978383	0.0013638141	-0.02118918	0.058528204	0.03033489	0.057153545	-0.00887118	0.05641506	0.010716139	0.059658393	0.037735753	0.051471412	-0.03440076	-0.008231274	0.057962332	0.026338387	0.0012355362	-0.04911705	0.03149164	0.060395557	0.062381864	0.01278352	-0.041401222	0.05332389	-0.053970195	-0.051009633	0.002764638	0.12460494	0.0949072	-0.0097806575	0.052982632	0.075242	-0.054796495	0.0043252697	0.047158074	0.00757	0.026732994	-0.016400184	-0.014278197	-0.0064938325	-0.018439492	0.075871386	-0.1227238	0.039193258	-0.053403184	-0.016879069	-0.013535836	-0.06938173	0.08472778	0.046768293	0.0028451472	0.032926	-0.03511083	0.1452049	-0.0075475755	0.0029553727	-0.011803417	0.016951596	0.0036468112	-0.00061434624	0.07400759	0.030302556	-0.14656816	0.043415144	-0.02407252	-0.009436887	0.040071778	0.054421656	0.0037714376	-0.023232158	-0.036915444	-0.018195745	-0.0013556491	0.018647151	0.0050170324	0.07806695	0.06725679	-0.053067148	-0.002886432	-0.017745402	-0.07140787	0.07325954	-0.047515143	0.017875567	-0.05636418	-0.085081965	0.0026600407	-0.01506336	-0.06322498	0.008952254	0.011214932	-0.009390399	0.11766661	0.0355064	-0.035476945	0.049013935	0.04339933	0.022943513	-0.0055428487	-0.06688655	0.023933217	-0.002480946	-0.024955243	-0.032490704	-0.00920893	-0.069716014	0.055210736	-0.0065409974	-0.032886606	0.04110621	-0.028544601	-0.080050476	-0.04872886	-0.08973353	-0.08382978	-0.03796413	-0.010765674	0.05593719	-0.0013056007	-0.04708892	3.344763e-08	-0.014209324	0.05695088	0.031789016	0.016870989	0.08317764	0.01485815	-0.011232111	0.04163164	-0.06970095	0.024319781	0.039822295	-0.04183085	0.007380953	0.011097896	0.02160456	-0.026868012	0.053351585	-0.045838535	-0.05618469	0.017430957	-0.05605565	1.657215e-05	-0.053425085	-0.035429306	-0.036429286	0.058221247	0.001273135	0.042376388	0.02301096	0.020474656	-0.108962014	0.006190526	0.029894693	0.07627803	0.036741905	0.055271804	-0.052379213	-0.049702484	-0.060062423	0.014897452	0.060220063	0.08864598	0.011608854	0.09802539	0.097498715	0.011359451	0.0012897094	0.04016176	0.10109954	-0.041034702	-0.010333596	0.01707492	-0.06760282	0.02188271	0.047818184	-0.050462082	-0.03817712	0.0332469	0.11395318	-0.020741848	0.023161484	0.030977756	-0.06201674	0.036713373	0.09025959	-0.11297375	-0.026765099	-0.06817096	0.07032343	-0.01739693	0.010617409	-0.026467254	0.113452256	0.09974984	-0.009285676	0.0038162898	-0.14864363	0.12517956	-0.047720496	-0.085792705	-0.022042936	-0.006070934	-0.13922514	0.10965033	0.032488555	-0.0758952	-0.03963037	-0.08697044	-0.07299363	0.03560732	-0.07477525	0.08637956	-0.0030269641	-0.052898753	-0.009663415	6.7193426e-08	0.056624133	-0.1473322	0.07040024	-0.059581965	-0.060170826	0.05257007	0.029012106	-0.07552384	-0.008391142	0.033413112	-0.07590683	-0.01421132	0.022116654	-0.03229462	0.010017769	0.08196783	0.030525794	0.058285035	-0.024972793	0.028323732	0.018701214	-0.03940864	0.01033401	0.0026490437	0.031546056	0.027947797	-0.035624087	0.004940725	-0.041491307	0.017929375	-0.12447866	0.0017901683	-0.035012394	0.06906028	-0.06902226	0.04905152	-0.027053602	0.009779407	0.004345726	-0.014960367	-0.016305303	0.0058596353	-0.012317001	0.084910296	-0.016955834	-0.030953547	-0.04181019	0.031972557	-0.053494643	0.009473062	0.010549645	0.026530283	-0.03093095	0.0111567555	0.012379484	0.037808456	-0.061224107	0.0694703	0.024890969	-0.019553147	0.012368477	-0.04061809	0.0058248634	0.07561879	0.010691202	0.015910324	-0.00958746	0.116711795	0.0028438948	0.031963196	-0.04512627	0.011673285	0.027544282	-0.007361655	0.018871007	-0.0066248006	0.041769106	-0.021047877	-0.00061981083	-0.03945499	0.01606979	-0.010806524	-0.093392715	-0.009147062	0.06851043	0.0344023	-0.019128798	0.042969126	0.02883184	-0.059992127	0.0029101355	0.09321184	-0.027595222	-0.051911872	-0.047271907	2.3811877e-07	-0.083302364	-0.0016176704	-0.007984315	0.028935893	-0.07767845	-0.011752571	0.033164162	0.020506626	-0.008181271	0.051498473	-0.04803989	0.028490525	0.055870157	-0.023092635	-0.0712284	-0.009943753	0.011777806	-0.009843222	-0.029243456	0.078111194	-0.052506205	0.046462424	0.04655961	0.026502512	-0.024415908	-0.04828832	0.02749235	-0.086569786	0.09586545	-0.011899086	0.0045086285	0.0053921356	-0.0006212602	0.07451173	0.02585589	-0.034360938	-0.008392866	0.03184492	-0.053533684	-0.0052312906	-0.028199323	-0.07860816	-0.04798807	0.000678546	0.02418322	0.0074531487	0.07750628	0.042971976	0.020108832	0.065415375	-0.12249961	0.053532172	-0.051312093	-0.007972568	0.0164832	-0.028200313	-0.054629084	-0.10091028	0.037147816	0.09630506	-0.06930671	0.012315215	-0.032235965	0.003964461
0.06135313	-0.011766698	-0.047393236	-0.08023246	0.022212282	-0.033334255	-0.01304915	-0.08978383	0.0013638141	-0.02118918	0.058528204	0.03033489	0.057153545	-0.00887118	0.05641506	0.010716139	0.059658393	0.037735753	0.051471412	-0.03440076	-0.008231274	0.057962332	0.026338387	0.0012355362	-0.04911705	0.03149164	0.060395557	0.062381864	0.01278352	-0.041401222	0.05332389	-0.053970195	-0.051009633	0.002764638	0.12460494	0.0949072	-0.0097806575	0.052982632	0.075242	-0.054796495	0.0043252697	0.047158074	0.00757	0.026732994	-0.016400184	-0.014278197	-0.0064938325	-0.018439492	0.075871386	-0.1227238	0.039193258	-0.053403184	-0.016879069	-0.013535836	-0.06938173	0.08472778	0.046768293	0.0028451472	0.032926	-0.03511083	0.1452049	-0.0075475755	0.0029553727	-0.011803417	0.016951596	0.0036468112	-0.00061434624	0.07400759	0.030302556	-0.14656816	0.043415144	-0.02407252	-0.009436887	0.040071778	0.054421656	0.0037714376	-0.023232158	-0.036915444	-0.018195745	-0.0013556491	0.018647151	0.0050170324	0.07806695	0.06725679	-0.053067148	-0.002886432	-0.017745402	-0.07140787	0.07325954	-0.047515143	0.017875567	-0.05636418	-0.085081965	0.0026600407	-0.01506336	-0.06322498	0.008952254	0.011214932	-0.009390399	0.11766661	0.0355064	-0.035476945	0.049013935	0.04339933	0.022943513	-0.0055428487	-0.06688655	0.023933217	-0.002480946	-0.024955243	-0.032490704	-0.00920893	-0.069716014	0.055210736	-0.0065409974	-0.032886606	0.04110621	-0.028544601	-0.080050476	-0.04872886	-0.08973353	-0.08382978	-0.03796413	-0.010765674	0.05593719	-0.0013056007	-0.04708892	3.344763e-08	-0.014209324	0.05695088	0.031789016	0.016870989	0.08317764	0.01485815	-0.011232111	0.04163164	-0.06970095	0.024319781	0.039822295	-0.04183085	0.007380953	0.011097896	0.02160456	-0.026868012	0.053351585	-0.045838535	-0.05618469	0.017430957	-0.05605565	1.657215e-05	-0.053425085	-0.035429306	-0.036429286	0.058221247	0.001273135	0.042376388	0.02301096	0.020474656	-0.108962014	0.006190526	0.029894693	0.07627803	0.036741905	0.055271804	-0.052379213	-0.049702484	-0.060062423	0.014897452	0.060220063	0.08864598	0.011608854	0.09802539	0.097498715	0.011359451	0.0012897094	0.04016176	0.10109954	-0.041034702	-0.010333596	0.01707492	-0.06760282	0.02188271	0.047818184	-0.050462082	-0.03817712	0.0332469	0.11395318	-0.020741848	0.023161484	0.030977756	-0.06201674	0.036713373	0.09025959	-0.11297375	-0.026765099	-0.06817096	0.07032343	-0.01739693	0.010617409	-0.026467254	0.113452256	0.09974984	-0.009285676	0.0038162898	-0.14864363	0.12517956	-0.047720496	-0.085792705	-0.022042936	-0.006070934	-0.13922514	0.10965033	0.032488555	-0.0758952	-0.03963037	-0.08697044	-0.07299363	0.03560732	-0.07477525	0.08637956	-0.0030269641	-0.052898753	-0.009663415	6.7193426e-08	0.056624133	-0.1473322	0.07040024	-0.059581965	-0.060170826	0.05257007	0.029012106	-0.07552384	-0.008391142	0.033413112	-0.07590683	-0.01421132	0.022116654	-0.03229462	0.010017769	0.08196783	0.030525794	0.058285035	-0.024972793	0.028323732	0.018701214	-0.03940864	0.01033401	0.0026490437	0.031546056	0.027947797	-0.035624087	0.004940725	-0.041491307	0.017929375	-0.12447866	0.0017901683	-0.035012394	0.06906028	-0.06902226	0.04905152	-0.027053602	0.009779407	0.004345726	-0.014960367	-0.016305303	0.0058596353	-0.012317001	0.084910296	-0.016955834	-0.030953547	-0.04181019	0.031972557	-0.053494643	0.009473062	0.010549645	0.026530283	-0.03093095	0.0111567555	0.012379484	0.037808456	-0.061224107	0.0694703	0.024890969	-0.019553147	0.012368477	-0.04061809	0.0058248634	0.07561879	0.010691202	0.015910324	-0.00958746	0.116711795	0.0028438948	0.031963196	-0.04512627	0.011673285	0.027544282	-0.007361655	0.018871007	-0.0066248006	0.041769106	-0.021047877	-0.00061981083	-0.03945499	0.01606979	-0.010806524	-0.093392715	-0.009147062	0.06851043	0.0344023	-0.019128798	0.042969126	0.02883184	-0.059992127	0.0029101355	0.09321184	-0.027595222	-0.051911872	-0.047271907	2.3811877e-07	-0.083302364	-0.0016176704	-0.007984315	0.028935893	-0.07767845	-0.011752571	0.033164162	0.020506626	-0.008181271	0.051498473	-0.04803989	0.028490525	0.055870157	-0.023092635	-0.0712284	-0.009943753	0.011777806	-0.009843222	-0.029243456	0.078111194	-0.052506205	0.046462424	0.04655961	0.026502512	-0.024415908	-0.04828832	0.02749235	-0.086569786	0.09586545	-0.011899086	0.0045086285	0.0053921356	-0.0006212602	0.07451173	0.02585589	-0.034360938	-0.008392866	0.03184492	-0.053533684	-0.0052312906	-0.028199323	-0.07860816	-0.04798807	0.000678546	0.02418322	0.0074531487	0.07750628	0.042971976	0.020108832	0.065415375	-0.12249961	0.053532172	-0.051312093	-0.007972568	0.0164832	-0.028200313	-0.054629084	-0.10091028	0.037147816	0.09630506	-0.06930671	0.012315215	-0.032235965	0.003964461
-0.058232732	0.047815815	0.0572858	0.02798774	-0.03291217	0.009184192	-0.008672918	0.023787694	0.011771373	0.045762435	0.052449457	-0.04264949	-0.04964664	-0.009860604	-0.04878927	-0.025009323	-0.014244067	-0.023778426	-0.065612644	0.026907196	0.014084712	-0.013640546	-0.03616635	-0.021024955	0.095656075	-0.06160826	-0.07791169	-0.059131447	0.015985046	0.019350547	0.008238089	-0.044023883	0.004476906	0.023726085	-0.0058011403	-0.09027286	-0.00027593088	-0.07238571	-0.06497772	0.05862264	0.007286057	-0.018025005	-0.0060399226	-0.015276652	0.0024032362	-0.0043983487	0.04097643	0.061173297	-0.014474554	0.12143292	0.0018171079	-0.014423504	0.048461527	0.019238949	-0.010731923	-0.03115712	-0.0071503706	-0.028960934	-0.047855005	0.065485954	-0.13068451	-0.023824632	-0.014235299	0.016573364	0.03893479	-0.039316267	0.036067236	-0.04428076	0.001994697	0.05983478	0.0082100835	0.010266044	0.014479906	0.019750772	-0.061471693	0.041272778	0.040292084	0.06136963	-0.01448713	0.0021371439	-0.08250671	-0.04353599	-0.043726984	-0.06310125	0.05859357	-0.00473005	0.060012408	0.11204131	-0.026483728	0.012770167	0.010614266	0.058658686	0.06874048	-0.031380266	-0.04052616	0.02759738	0.014641025	-0.0027139422	0.01306115	0.025317272	0.014716212	0.055028185	-0.037035376	-0.076346956	0.000109371336	-0.019664481	-0.032666445	-0.047685605	-0.09016331	0.0065212618	-0.024886444	0.023653936	0.08757379	-0.04448078	-0.03328106	0.06981699	-0.011388812	0.078741126	0.07771367	-0.022021597	0.049845625	0.1081108	0.04850443	0.010669927	-0.086406216	-0.016472338	0.021073818	1.0984804e-07	0.032861963	-0.08047955	-0.030122805	-0.024687786	-0.032646917	-0.033952672	0.063625775	-0.032089654	0.058312587	-0.02886384	-0.070316434	0.018323267	0.04371629	-0.039066188	-0.11268772	0.0061893878	0.004209112	0.059496753	0.056454286	0.055500813	0.08956277	-0.035928372	0.0046643442	0.06905398	0.0007168334	-0.033267617	0.019104566	-0.0030482032	0.024901483	-0.031067021	0.06495067	0.022614386	0.059019215	-0.04266275	0.005575248	0.014669442	-0.0081509845	0.036184784	0.06916237	-0.040671617	-0.062286973	-0.040813647	-0.01422547	-0.051643282	-0.07019627	0.016620288	-0.026110832	-0.039789513	-0.09371692	0.004903943	-0.00988673	-0.013182831	-0.0124294255	0.03155921	-0.072189085	-0.014041208	0.105162546	-0.11387898	-0.047731705	-0.016266612	0.012812445	-0.07350759	-0.017215135	-0.009057932	-0.11049678	0.023354955	0.04422102	0.005019582	-0.042634733	-0.016655518	0.036428753	0.08296263	-0.04383557	-0.15423073	0.03807356	-0.001974798	0.11068938	-0.12145652	0.04922329	0.07621245	0.06387314	0.020163655	0.13824049	-0.042544603	0.08116018	0.1368504	0.026393361	0.103450075	0.065586604	-0.036107305	0.001848324	-0.054604564	-0.01547418	-0.01778261	0.100681625	1.8659799e-08	-0.049116075	0.14386074	-0.06893658	0.03070794	0.055525355	-0.028754946	-0.07136895	0.01234575	0.04328076	0.009753099	-0.037792597	0.0028956828	0.04229094	0.015895482	-0.040827263	-0.1031735	0.042737633	-0.0873782	0.089060396	0.02718819	0.006847717	0.057148036	0.02219138	0.032820363	-0.036848053	0.032746598	0.04950125	0.02045373	-0.018766202	-0.025376512	0.067149885	-0.0063862293	-0.02086534	0.00035259785	0.0883135	-0.023845011	0.036806148	0.020600095	0.042381164	0.060540713	0.028691264	0.018293357	0.011036013	-0.013300453	-0.017599296	-0.03583142	0.042683665	-0.0720785	0.046551943	0.016613483	-0.078045815	-0.023618601	0.0070244423	0.015881034	-0.042693146	-0.03431731	0.030508297	-0.055998016	0.05256564	0.07766399	-0.065518096	0.03610325	-0.032020275	-0.056622364	-0.018213116	-0.013810043	0.0569135	-0.07404212	0.07272787	-0.014172819	0.05539688	-0.03727761	-0.0018474201	-0.031022402	0.014361041	0.09858159	-0.017424615	-0.025150893	-0.047781367	0.028251082	0.027795417	0.02364988	0.075516306	-0.004022101	-0.014542677	-0.03339901	0.07950778	-0.07026784	0.021988789	0.0817198	0.032426313	-0.090641536	0.06119953	-0.02739352	0.01889404	7.7737345e-09	0.08679995	0.024299463	0.042736247	-0.011079099	0.06264159	-0.086122796	-0.014129187	-0.014875596	-0.007249972	-0.05139485	0.03132617	-0.03192445	-0.06943097	-0.014679582	0.044910498	0.0072197295	-0.008985675	-0.02237018	-0.014736174	-0.10186017	-0.033416763	0.0069884593	-0.0016370361	-0.0436672	0.013223042	0.0050111185	-0.020226397	0.077780515	-0.043574385	0.033950053	-0.05077397	-0.0015578411	0.017065115	-0.06355629	-0.020876145	-0.047991842	-0.044041112	-0.019388145	0.03288524	0.013633549	0.059157427	0.10790981	0.03424369	0.027507942	0.018323364	-0.0040687136	-0.18805227	-0.10047109	-0.050817393	-0.051902078	0.081233546	-0.053975504	0.067088954	0.063674405	-0.016528588	-0.018790068	0.033809297	0.056472227	0.06575307	-0.061286777	0.005277784	-0.09019804	-0.012030371	0.009743195
0.0826377	-0.0326359	-0.022720387	-0.05845428	0.014272892	-0.04528355	-0.032574464	-0.073360756	-0.034438208	-0.007860461	0.030045612	0.0082139345	0.04063666	0.006585679	0.052616727	0.0024806345	0.057124443	0.021835655	0.042406023	-0.03895903	-0.0018201312	0.05398606	0.034670826	-0.010646527	-0.048504032	0.0352151	0.06130636	0.066208355	0.014570879	-0.029704448	0.05525314	-0.03321124	-0.048733413	-0.0056293467	0.122753516	0.11772246	-0.016204787	0.03459567	0.072104625	-0.04758268	-0.0049642	0.050305832	-0.0041251434	0.03265245	-0.020550432	-0.0039843866	0.0058565773	-0.015837658	0.07075292	-0.1231716	0.05986702	-0.0632221	-0.029292203	-0.023236202	-0.08787744	0.083332606	0.041414954	-0.02100733	0.029993014	-0.04654909	0.15956828	-0.008904745	0.0029707912	-0.019415298	0.028225783	-0.0049859537	-0.0100321965	0.07785866	0.037387986	-0.14706708	0.027442517	-0.031690896	-0.018759815	0.032149997	0.057608668	-0.006806353	-0.015421943	-0.02100388	-0.015721131	-0.0059280745	0.020329805	0.020758666	0.06669281	0.064769715	-0.06558776	-0.0039678384	-0.021209313	-0.04588411	0.07538286	-0.03884104	0.041849386	-0.059351567	-0.0670248	0.0055993428	-0.016593156	-0.048159648	0.010534607	-0.01004096	0.014921194	0.07969796	0.025724683	-0.059213296	0.055358768	0.05162332	0.010976132	-0.0029704426	-0.0677159	0.0031092404	-0.0005501633	-0.015676457	-0.038581926	-0.026173173	-0.0558109	0.04482194	-0.011847227	-0.011513914	0.039152242	-0.041723985	-0.055581257	-0.023845065	-0.094931416	-0.093179844	-0.026580604	-0.0140434755	0.056117292	0.0031892764	-0.054143038	-1.7373141e-07	-0.013467021	0.038581237	0.017976938	0.03878467	0.084334806	0.01624084	-0.0058636796	0.030966654	-0.06030005	0.017254882	0.07267483	-0.024390362	0.009508058	0.029221218	0.047247365	-0.04939318	0.054260965	-0.03072823	-0.069674514	0.018013759	-0.07044587	-0.009751774	-0.038342018	-0.04486843	-0.0074332003	0.047335576	0.016793113	0.046112344	0.01569151	0.018268952	-0.11517889	0.013150098	0.022724625	0.0611106	0.041082233	0.07116071	-0.05727833	-0.0553172	-0.05956762	0.009428398	0.041596178	0.083177455	0.017898533	0.0680879	0.118369415	0.01390731	0.025466165	0.048363447	0.084964745	-0.039096277	0.0010841615	0.01257615	-0.065376	-0.00039232115	0.04148969	-0.04352493	-0.025840819	0.007015714	0.11460091	-0.009838499	0.028825508	0.0055845166	-0.053240035	0.03488952	0.081713274	-0.11428637	-0.03233716	-0.052083503	0.08066964	-0.013921281	-0.0020036506	-0.0370933	0.12275459	0.10901107	-0.006464399	0.018858237	-0.14434838	0.12097228	-0.05101654	-0.064613365	-0.03563475	0.008973501	-0.1586112	0.11037236	0.06132647	-0.0819495	-0.033908024	-0.078996316	-0.08333616	0.026463175	-0.0883509	0.084131815	-0.002022255	-0.037231445	-0.0025109076	-1.4910637e-07	0.062538564	-0.14787148	0.058383558	-0.06357712	-0.052413832	0.057776995	0.014162419	-0.09178569	0.017957136	0.025018383	-0.12293011	-0.005812058	0.039605502	-0.033644173	-0.006831016	0.058464255	0.027872043	0.040862598	-0.010255404	0.03446122	0.016960291	-0.028050046	-7.937932e-05	0.008576132	0.03477241	0.028127778	-0.056601007	-0.00661148	-0.038911052	0.033152927	-0.14597745	-0.016568784	-0.03241849	0.053687178	-0.07465732	0.0377582	-0.017278835	0.002075615	0.0008248829	-0.002248777	0.015535293	-0.0059896284	0.009212444	0.0712191	-0.008106616	-0.019232212	-0.05129029	0.032606944	-0.061181575	-0.009632565	0.0097483015	0.037057847	-0.03574082	0.007354767	0.031436514	0.03669068	-0.05965803	0.07089397	0.010995734	-0.009167439	0.007942647	-0.03258922	0.011684527	0.084135704	-0.0035940772	0.019460384	0.0034117212	0.10660462	0.01011067	0.041094568	-0.06493981	0.020812768	0.026790038	-0.0206774	0.01872453	-0.016968334	0.056297485	-0.0109434845	0.016938563	-0.03420193	0.009358229	-0.00082269695	-0.09723724	-0.009217192	0.077216655	0.037806395	-0.030100323	0.013787317	0.03355677	-0.056667287	0.008299243	0.081271745	-0.02923137	-0.048473977	-0.047111303	1.5166103e-08	-0.07475229	0.018083898	-0.002356708	0.015057919	-0.089634284	-0.024266822	0.028209368	0.03550423	0.025607567	0.071211055	-0.057376854	0.0347553	0.04261362	-0.011048774	-0.079379074	-0.009611956	0.006111495	0.0031959112	-0.043513987	0.05794479	-0.042644825	0.04437903	0.02494143	0.022634527	-0.023651917	-0.04641659	0.029662991	-0.07326879	0.08852593	0.0004367646	0.01706828	-0.009928492	0.00088538806	0.07368726	0.028352397	-0.03391891	-0.017720478	0.036467236	-0.04450173	-0.0113777425	-0.021047616	-0.07202435	-0.039521467	0.0016425328	0.020420758	0.0070617474	0.052843317	0.044322193	0.0017610964	0.04250859	-0.1407708	0.05213284	-0.057075202	-0.01795876	0.034536444	-0.006679074	-0.040599693	-0.09751049	0.058958624	0.09026001	-0.07110347	0.004673402	-0.061856218	0.00332758
0.06884264	-0.0351548	-0.03637265	-0.0776644	0.012334947	-0.017958332	-0.038308416	-0.07790258	0.010361865	-0.029102296	0.0457231	0.035771213	0.049293242	-0.033226773	0.04081222	-0.013189296	0.058169436	0.0204975	0.040117987	-0.033517126	0.00041547648	0.0792002	0.018840589	0.0008564037	-0.056509558	0.027677584	0.04623487	0.054090045	0.0025858618	-0.03742108	0.047697827	-0.051098317	-0.03798471	0.0009090818	0.15582518	0.07435963	-0.003709933	0.044194978	0.07483853	-0.04298149	0.017374435	0.048365466	-0.0133693665	0.023788448	-0.012988149	-0.0021912132	-0.0089762965	-0.016728241	0.08198354	-0.12007768	0.042701013	-0.02879757	-0.0058865375	0.010309044	-0.070782125	0.085785225	0.039435282	0.010665613	0.021921188	-0.015621969	0.15103467	-0.009117901	0.0044346987	-0.0127847325	0.005028969	0.0054717944	-0.007329925	0.05929537	0.025280815	-0.17890963	0.03890065	-0.015848808	-0.0079081645	0.025026763	0.06747328	0.012747228	-0.006011779	-0.03555805	-0.012714023	-0.0050485497	-0.0041566878	-0.014750567	0.07958146	0.070627615	-0.05967822	0.00666662	-0.031075124	-0.037754737	0.064568505	-0.047253896	2.4125933e-05	-0.0303983	-0.10781757	0.014281814	-0.010975814	-0.033668704	0.010205356	0.011699119	0.0038849646	0.09147716	0.033389777	-0.020325616	0.03419972	0.05745248	0.0059067453	-0.0039204825	-0.078457594	0.03601056	-0.0053022983	-0.008992455	-0.024401734	0.005280273	-0.054088235	0.058979493	-0.005441473	-0.016588183	0.055173464	-0.028518854	-0.072232746	-0.06331598	-0.08714562	-0.08168627	-0.012486797	-0.0067878338	0.046590846	0.0017144954	-0.03459214	-1.9736889e-07	-0.013207356	0.049352728	0.048675835	0.010661289	0.083096854	0.016465394	-0.018373353	0.041623663	-0.039490655	0.02171135	0.00964524	-0.037977148	0.02189122	-0.015121402	0.003989807	-0.02751982	0.061462894	-0.03494595	-0.07981006	0.013467944	-0.048420254	-0.009605487	-0.063618094	-0.047013234	-0.031452477	0.061713476	-0.014163293	0.048383888	0.04676503	0.020848824	-0.112277046	-0.0002003089	0.029618885	0.07552104	0.0628215	0.054993637	-0.06289267	-0.03885199	-0.06232766	-0.010616675	0.07954878	0.10412487	0.010805263	0.07698443	0.091434166	0.012790882	-0.00039577985	0.025584986	0.11349342	-0.03847864	-0.020420052	0.03596871	-0.07483318	0.031887602	0.042814016	-0.049781553	-0.03438222	0.019319579	0.119846046	-0.021983199	0.022659611	0.04868898	-0.06514445	0.019199347	0.09904305	-0.14140397	-0.029462537	-0.06889596	0.08338892	-0.008807902	0.023050139	-0.031717587	0.11270656	0.08752058	0.008531027	0.0013071808	-0.15257649	0.11619137	-0.051310923	-0.0514248	0.0017009891	-0.00860989	-0.13134395	0.10355623	0.032933585	-0.07782997	-0.0501688	-0.06501522	-0.06800211	0.033580765	-0.07249337	0.07903348	-0.008004454	-0.028264523	-0.02296538	-1.9882958e-07	0.06747078	-0.1342571	0.06263347	-0.06635352	-0.06573288	0.053404387	0.0078133205	-0.06736873	0.0015144278	0.03846753	-0.05935257	-0.012953867	-0.0005734833	-0.027522255	0.01641533	0.09942732	0.041742418	0.077060424	-0.013889294	0.013288344	0.0044779526	-0.03300694	0.010448001	0.01577525	0.041861847	0.024326378	-0.0061006118	0.016774978	-0.058961544	0.02468005	-0.15047848	-0.011615354	-0.047854554	0.109348625	-0.087102585	0.047697537	-0.01577171	0.019671084	0.0045054383	-0.009119086	-0.020606305	-8.456205e-05	-0.03423393	0.09208901	-0.013764186	-0.033594817	-0.024847817	0.025893142	-0.036998864	0.00064915494	-0.007723489	0.020702308	-0.03851261	0.015904358	0.019676372	0.04595469	-0.053636868	0.059643146	0.022324895	-0.01745805	0.017284038	-0.04672696	0.005118101	0.06970625	0.006970422	0.020128138	-0.0043043075	0.09080209	0.003054919	0.040254362	-0.057461105	0.016017003	0.02831865	-0.014864486	-0.0006241405	-0.01052944	0.04396228	-0.022971533	-0.017216712	-0.034913186	0.030025056	0.006353115	-0.09278385	-0.009558772	0.051719762	0.032399975	-0.0029358342	0.058781844	0.021145504	-0.05749807	-0.015301499	0.097054906	-0.04364774	-0.077993646	-0.06671593	-5.1055e-08	-0.07473882	0.009077753	-0.009716277	0.013847956	-0.0431886	-0.015826607	0.027508637	0.026920116	-0.020817399	0.045634188	-0.034503344	0.021462116	0.050098993	-0.031308655	-0.0728392	-0.018044293	-0.011551609	-0.026652176	-0.030326007	0.06783261	-0.04958056	0.04403304	0.04917289	0.027720217	-0.008149405	-0.053701885	0.006663842	-0.071045816	0.0821947	-0.029947808	0.008995337	0.013861536	0.009510503	0.055614635	0.034569144	-0.041230198	-0.027848912	0.034046184	-0.061321765	7.762998e-05	-0.04379167	-0.09162048	-0.053640418	0.0104977535	0.043293025	0.007993934	0.07204257	0.036522917	0.00997159	0.03222223	-0.11800135	0.03127152	-0.046256002	-0.03527637	-0.007975683	-0.030498829	-0.06818602	-0.10389783	0.03134011	0.07363439	-0.07728915	0.027347254	-0.046370152	0.0037059886
0.055794306	-0.017640896	-0.05906006	-0.09523791	0.015074343	-0.06903363	-0.02161885	-0.098901615	0.012918895	-0.022299426	0.052154068	0.060396012	0.034605037	-0.017171333	0.06282827	0.01394596	0.040924393	0.06211466	0.04861023	-0.026007084	0.017988168	0.08479855	-0.007354475	0.006785458	-0.073813245	0.028125491	0.031834457	0.07762501	0.004086213	-0.023378532	0.074403614	-0.07669757	-0.07696259	-0.022134183	0.105794005	0.052660745	-0.017195154	0.046067894	0.06630785	-0.03516771	0.03608957	0.03825785	0.02267752	0.037551537	-0.020011444	0.024097057	-0.014292291	-0.017002163	0.11677521	-0.11015427	0.012431119	-0.052934885	-0.04964272	0.000903419	-0.045608975	0.07270701	0.079025105	0.008140832	0.022661455	-0.05102602	0.13424121	-0.031926457	0.020724168	-0.021453343	-0.0037435372	0.011208811	-0.012000933	0.0837575	0.030696364	-0.11421361	0.047519546	0.003647147	-0.019087402	0.04725006	0.08639765	-0.019835103	-0.058836427	-0.04266936	-0.005977768	-0.0024445246	0.03725842	-0.012378863	0.10101044	0.06269842	-0.041610964	0.021870496	0.011113844	-0.064112574	0.08439114	-0.016076114	-0.004472333	-0.0646442	-0.054591198	-0.010570521	-0.03293219	-0.074057564	0.005738728	-0.015317138	-0.004438162	0.048198875	0.04362553	-0.05495949	0.034690768	0.027165221	0.07739406	-0.016371593	-0.0077774357	0.04856569	0.02447351	-0.00878383	-0.04548555	-0.015494999	-0.0503981	0.050833516	-0.018746356	-0.04283865	0.034016408	0.002580827	-0.047444623	-0.07258407	-0.09655327	-0.099288866	-0.038599394	-0.024947084	0.069157384	-0.0053684013	-0.03754241	-1.6906182e-07	-0.001713598	0.07008846	0.015343302	-0.014468978	0.0877384	-0.00784675	-0.037991505	0.036278035	-0.061252024	0.03610357	0.03473892	-0.033428922	0.03120018	-0.025342036	-0.01379362	-0.045398924	0.07214619	-0.050099038	-0.030834395	0.007810922	-0.05949792	-0.019380044	-0.02781218	-0.016959356	-0.04733167	0.074549936	-0.028099457	0.055057738	0.012027913	0.026978863	-0.0849555	-0.005511228	0.041466996	0.09253017	0.047473524	0.028833156	-0.035465762	-0.04575696	-0.04259069	-0.046472747	0.016037801	0.04720179	-0.019121476	0.092120886	0.11147645	0.029919073	-0.0038070383	-0.0044445987	0.08385593	-0.042186096	0.0040184315	0.0029031443	-0.06299586	0.043740515	0.020170702	-0.04371615	-0.07753976	0.036001448	0.066157915	-0.040101778	0.031587783	0.042927783	-0.044635437	0.036362287	0.042733576	-0.10683917	-0.06354931	-0.032034718	0.0617244	-0.025300562	0.0141522605	-0.038769744	0.114694655	0.08011377	-0.075298205	0.01953829	-0.17317754	0.13584588	-0.026236435	-0.07374176	0.0031893488	-0.013456285	-0.11897091	0.10033767	0.07298972	-0.06992725	-0.03664823	-0.07318202	-0.060527023	0.05148082	-0.08364358	0.09628885	-0.000117133786	-0.025693493	-0.00409232	-2.2910902e-07	0.056392953	-0.1479602	0.047929578	-0.036919627	-0.07041763	0.06289877	0.051948104	-0.09038682	0.008935725	0.045931693	-0.051941626	0.016813511	0.0039828494	-0.019717079	-0.0019406456	0.06389948	0.033128377	0.06825236	-0.06765659	0.037646603	-0.023388647	-0.04738222	0.00010229971	-0.014079953	0.01090786	0.021445122	-0.015169173	-0.009579748	-0.030780846	-0.0008504355	-0.10248747	-0.00234382	0.0016278821	0.0396057	-0.048968706	0.056432407	-0.032036074	0.021452054	0.0010098859	-0.015703818	0.001563637	0.0019406282	0.015599049	0.053285167	-0.044032652	-0.012165039	-0.028858477	0.019276137	-0.07797416	0.014161543	0.004571508	0.01711547	-0.011830139	-0.035511427	-0.0029685264	0.04994028	-0.071873784	0.0695388	0.025383897	0.0060262857	0.032057166	-0.045527175	-0.012929099	0.08679447	0.010021625	0.02219324	-0.005809285	0.12575847	0.015179804	0.010765071	-0.06120541	-0.0020604015	0.03623757	-0.010652429	0.033658445	-0.04251978	0.061426885	-0.017315354	-0.010641351	-0.043690138	0.025014965	-0.014100701	-0.077327855	-0.043779023	0.06585321	0.016113749	-0.018166056	0.048650432	-0.009669103	-0.040772248	-0.01489364	0.11423508	-0.008676823	-0.046084397	-0.05240583	-9.4118676e-08	-0.06414456	-0.0055719917	0.028483259	0.0082294755	-0.046411913	0.011896896	0.01661271	0.021452477	-0.0065431725	0.06642445	-0.040692892	0.041989256	0.052706756	-0.008469418	-0.09507154	-0.019426132	0.022980679	-0.03474013	0.0032370735	0.08050137	-0.07770296	0.016869878	0.049405005	0.01416105	-0.03135557	-0.055758297	-0.015133202	-0.09993212	0.088944316	0.0051896814	0.011376446	-6.630166e-05	-0.032168	0.08204328	0.005959237	0.0029961034	0.004322096	0.036748122	-0.056476742	-0.009995028	-0.0016875548	-0.062169038	-0.010612655	-0.0005025272	0.006673736	0.017402709	0.11496264	0.006297834	0.038125426	0.080242135	-0.09311571	0.029393373	-0.025380114	-0.018229043	0.010895445	-0.017809305	-0.06743256	-0.12037263	0.008227419	0.101915635	-0.07530283	0.021287546	-0.03147852	0.018879388
